{"learner":{"attributes":{"scikit_learn":"{\"_estimator_type\": \"classifier\"}"},"feature_names":[],"feature_types":[],"gradient_booster":{"model":{"cats":{"enc":[],"feature_segments":[],"sorted_idx":[]},"gbtree_model_param":{"num_parallel_tree":"1","num_trees":"100"},"iteration_indptr":[0,1,2,3,4,5,6,7,8,9,10,11,12,13,14,15,16,17,18,19,20,21,22,23,24,25,26,27,28,29,30,31,32,33,34,35,36,37,38,39,40,41,42,43,44,45,46,47,48,49,50,51,52,53,54,55,56,57,58,59,60,61,62,63,64,65,66,67,68,69,70,71,72,73,74,75,76,77,78,79,80,81,82,83,84,85,86,87,88,89,90,91,92,93,94,95,96,97,98,99,100],"tree_info":[0,0,0,0,0,0,0,0,0,0,0,0,0,0,0,0,0,0,0,0,0,0,0,0,0,0,0,0,0,0,0,0,0,0,0,0,0,0,0,0,0,0,0,0,0,0,0,0,0,0,0,0,0,0,0,0,0,0,0,0,0,0,0,0,0,0,0,0,0,0,0,0,0,0,0,0,0,0,0,0,0,0,0,0,0,0,0,0,0,0,0,0,0,0,0,0,0,0,0,0],"trees":[{"base_weights":[4.629487E-8,-1.1239192E0,3.9374056E-1,-4.3548387E-1,-6.040268E-2,7.44866E-1,-4.4996116E-1,1.2508407E0,1.765448E-1,2.77666E-1,-1.048387E0,-3.3519547E-2,1.540944E0,1.0526316E0,-7.390817E-1,-3.9892545E-1,-3.3519547E-2,1.0055867E-1,5.322581E-1,4.601085E-1,-3.3519547E-2,1.0055867E-1,-3.764524E-1],"categories":[],"categories_nodes":[],"categories_segments":[],"categories_sizes":[],"default_left":[0,0,0,0,0,0,0,0,0,0,0,0,0,0,0,0,0,0,0,0,0,0,0],"id":0,"left_children":[1,3,5,-1,-1,7,9,11,13,-1,15,-1,17,19,21,-1,-1,-1,-1,-1,-1,-1,-1],"loss_changes":[1.1837748E1,1.8058481E0,6.203777E0,0E0,0E0,3.909914E0,6.275498E0,3.1111298E0,7.1391754E0,0E0,1.1585903E0,0E0,1.1482859E0,2.6723542E0,2.8945339E0,0E0,0E0,0E0,0E0,0E0,0E0,0E0,0E0],"parents":[2147483647,0,0,1,1,2,2,5,5,6,6,7,7,8,8,10,10,12,12,13,13,14,14],"right_children":[2,4,6,-1,-1,8,10,12,14,-1,16,-1,18,20,22,-1,-1,-1,-1,-1,-1,-1,-1],"split_conditions":[-6.090086E-1,4.4279855E-1,5.6234866E-1,-4.3548387E-1,-6.040268E-2,-1.9032462E-1,2.2867092E-1,-1.0272233E0,2.5087318E-1,2.77666E-1,5.604046E-1,-3.3519547E-2,-9.323628E-1,1.1306835E0,2.3482051E-1,-3.9892545E-1,-3.3519547E-2,1.0055867E-1,5.322581E-1,4.601085E-1,-3.3519547E-2,1.0055867E-1,-3.764524E-1],"split_indices":[43,33,46,0,0,31,43,4,21,0,1,0,2,2,4,0,0,0,0,0,0,0,0],"split_type":[0,0,0,0,0,0,0,0,0,0,0,0,0,0,0,0,0,0,0,0,0,0,0],"sum_hessian":[2.475E1,5.94E0,1.881E1,3.96E0,1.98E0,1.3365E1,5.445E0,6.435E0,6.9300003E0,1.485E0,3.96E0,1.2375E0,5.1975E0,3.4650002E0,3.4650002E0,2.7225E0,1.2375E0,1.2375E0,3.96E0,2.2275E0,1.2375E0,1.2375E0,2.2275E0],"tree_param":{"num_deleted":"0","num_feature":"50","num_nodes":"23","size_leaf_vector":"1"}},{"base_weights":[-1.5923504E-3,-9.136595E-1,3.0843422E-1,-3.3466718E-1,3.3806806E-4,6.8942225E-1,-3.5387537E-1,-2.0407934E-1,9.251701E-1,2.2390619E-1,-9.242422E-1,-1.1484938E-1,1.2221186E0,-3.93026E-1,7.859886E-2,-2.727035E-1,2.1538861E-1,4.5396954E-1,-6.191221E-3],"categories":[],"categories_nodes":[],"categories_segments":[],"categories_sizes":[],"default_left":[0,0,0,0,0,0,0,0,0,0,0,0,0,0,0,0,0,0,0],"id":1,"left_children":[1,3,5,-1,-1,7,9,-1,11,-1,13,15,17,-1,-1,-1,-1,-1,-1],"loss_changes":[7.343038E0,1.2179089E0,5.1353416E0,0E0,0E0,4.7124496E0,5.5467024E0,0E0,3.6029577E0,0E0,2.8807316E0,2.9042163E0,3.2176619E0,0E0,0E0,0E0,0E0,0E0,0E0],"parents":[2147483647,0,0,1,1,2,2,5,5,6,6,8,8,10,10,11,11,12,12],"right_children":[2,4,6,-1,-1,8,10,-1,12,-1,14,16,18,-1,-1,-1,-1,-1,-1],"split_conditions":[-6.090086E-1,3.050241E-1,4.2618325E-1,-3.3466718E-1,3.3806806E-4,-1.0183526E0,-3.972781E-1,-2.0407934E-1,-8.923414E-1,2.2390619E-1,7.8702927E-1,7.383494E-1,5.313776E-1,-3.93026E-1,7.859886E-2,-2.727035E-1,2.1538861E-1,4.5396954E-1,-6.191221E-3],"split_indices":[43,16,3,0,0,25,23,0,40,0,14,23,11,0,0,0,0,0,0],"split_type":[0,0,0,0,0,0,0,0,0,0,0,0,0,0,0,0,0,0,0],"sum_hessian":[2.397209E1,5.5874205E0,1.8384668E1,4.397417E0,1.1900034E0,1.1645027E1,6.739641E0,1.4331157E0,1.0211911E1,2.1956718E0,4.543969E0,2.404329E0,7.8075824E0,3.3499396E0,1.1940297E0,1.1838866E0,1.2204424E0,6.1494455E0,1.6581371E0],"tree_param":{"num_deleted":"0","num_feature":"50","num_nodes":"19","size_leaf_vector":"1"}},{"base_weights":[-1.4165218E-2,-7.543918E-1,2.3245159E-1,-3.209518E-1,-8.548409E-3,-2.694039E-1,3.7524545E-1,6.1451817E-1,-5.0560933E-1,-1.8865858E-1,8.234864E-1,-3.2453915E-1,1.1209757E-1,1.0442904E0,-1.24217E-1,3.8194397E-1,-8.524699E-2],"categories":[],"categories_nodes":[],"categories_segments":[],"categories_sizes":[],"default_left":[0,0,0,0,0,0,0,0,0,0,0,0,0,0,0,0,0],"id":2,"left_children":[1,3,5,-1,-1,-1,7,9,11,-1,13,-1,-1,15,-1,-1,-1],"loss_changes":[4.477445E0,1.3720062E0,3.3138542E0,0E0,0E0,0E0,3.9102569E0,4.1247096E0,2.530418E0,0E0,3.7981796E0,0E0,0E0,3.6258812E0,0E0,0E0,0E0],"parents":[2147483647,0,0,1,1,2,2,6,6,7,7,8,8,10,10,13,13],"right_children":[2,4,6,-1,-1,-1,8,10,12,-1,14,-1,-1,16,-1,-1,-1],"split_conditions":[-6.090086E-1,4.4279855E-1,-1.4248827E0,-3.209518E-1,-8.548409E-3,-2.694039E-1,9.5134324E-1,-1.0056084E0,3.8348697E-2,-1.8865858E-1,9.892615E-1,-3.2453915E-1,1.1209757E-1,1.218663E0,-1.24217E-1,3.8194397E-1,-8.524699E-2],"split_indices":[43,33,44,0,0,0,10,48,40,0,32,0,0,37,0,0,0],"split_type":[0,0,0,0,0,0,0,0,0,0,0,0,0,0,0,0,0],"sum_hessian":[2.2566317E1,5.1248837E0,1.7441433E1,3.2421508E0,1.8827329E0,1.3628896E0,1.6078543E1,1.2881746E1,3.1967964E0,1.5643505E0,1.1317396E1,1.7920924E0,1.4047039E0,9.736377E0,1.5810193E0,8.341062E0,1.3953147E0],"tree_param":{"num_deleted":"0","num_feature":"50","num_nodes":"17","size_leaf_vector":"1"}},{"base_weights":[-4.8044596E-2,1.884384E-1,-6.87449E-1,6.790911E-1,-2.5404465E-1,-3.5030842E-1,8.5488275E-2,1.1281784E0,-3.5192433E-1,-8.5194E-1,3.7948132E-1,5.35522E-2,3.9960867E-1,8.0789156E-2,-2.3124257E-1,1.658679E-2,-3.283199E-1,-2.5625303E-1,3.1414157E-1,1.6636336E-1,-2.5498852E-1],"categories":[],"categories_nodes":[],"categories_segments":[],"categories_sizes":[],"default_left":[0,0,0,0,0,0,0,0,0,0,0,0,0,0,0,0,0,0,0,0,0],"id":3,"left_children":[1,3,5,7,9,-1,-1,11,13,15,17,-1,-1,-1,-1,-1,-1,19,-1,-1,-1],"loss_changes":[3.4425397E0,3.8154292E0,3.1957664E0,4.207136E0,3.9408789E0,0E0,0E0,9.179373E-1,1.0556349E0,1.2090898E0,2.5302172E0,0E0,0E0,0E0,0E0,0E0,0E0,2.1721091E0,0E0,0E0,0E0],"parents":[2147483647,0,0,1,1,2,2,3,3,4,4,7,7,8,8,9,9,10,10,17,17],"right_children":[2,4,6,8,10,-1,-1,12,14,16,18,-1,-1,-1,-1,-1,-1,20,-1,-1,-1],"split_conditions":[7.298528E-1,-1.8735169E-1,6.842138E-1,5.012395E-1,-4.3585543E-2,-3.5030842E-1,8.5488275E-2,-5.852801E-1,-8.926111E-1,-1.0739375E0,1.4740142E-1,5.35522E-2,3.9960867E-1,8.0789156E-2,-2.3124257E-1,1.658679E-2,-3.283199E-1,-3.568569E-1,3.1414157E-1,1.6636336E-1,-2.5498852E-1],"split_indices":[36,10,21,2,11,0,0,18,14,22,34,0,0,0,0,0,0,29,0,0,0],"split_type":[0,0,0,0,0,0,0,0,0,0,0,0,0,0,0,0,0,0,0,0,0],"sum_hessian":[2.0910164E1,1.5779445E1,5.130719E0,7.228883E0,8.550562E0,3.3000784E0,1.8306408E0,4.9698763E0,2.2590067E0,4.221617E0,4.328945E0,1.2097473E0,3.7601287E0,1.053594E0,1.2054127E0,1.0531043E0,3.1685128E0,2.5331266E0,1.7958186E0,1.0986803E0,1.4344462E0],"tree_param":{"num_deleted":"0","num_feature":"50","num_nodes":"21","size_leaf_vector":"1"}},{"base_weights":[-4.2528566E-2,-2.2864299E-1,6.310662E-1,-5.2014834E-1,2.959411E-1,-2.5011608E-2,3.1702527E-1,-8.1558955E-1,1.8885845E-1,6.711178E-1,-3.1170166E-1,5.5207226E-2,-9.874735E-1,-1.8062147E-1,2.6582623E-1,1.7313896E-2,2.9070997E-1,2.2928666E-2,-1.598817E-1,-3.391521E-1,-9.454767E-2],"categories":[],"categories_nodes":[],"categories_segments":[],"categories_sizes":[],"default_left":[0,0,0,0,0,0,0,0,0,0,0,0,0,0,0,0,0,0,0,0,0],"id":4,"left_children":[1,3,5,7,9,-1,-1,11,13,15,17,-1,19,-1,-1,-1,-1,-1,-1,-1,-1],"loss_changes":[2.65828E0,2.668851E0,1.4892672E0,2.444417E0,1.6937207E0,0E0,0E0,1.5401273E0,2.754814E0,7.377639E-1,3.1282115E-1,0E0,3.0754757E-1,0E0,0E0,0E0,0E0,0E0,0E0,0E0,0E0],"parents":[2147483647,0,0,1,1,2,2,3,3,4,4,7,7,8,8,9,9,10,10,12,12],"right_children":[2,4,6,8,10,-1,-1,12,14,16,18,-1,20,-1,-1,-1,-1,-1,-1,-1,-1],"split_conditions":[9.945115E-1,3.8065037E-1,1.2740737E-1,7.4324834E-1,-5.7959665E-2,-2.5011608E-2,3.1702527E-1,-1.0739375E0,-3.2837206E-1,7.3037418E-3,-1.3391776E-1,5.5207226E-2,6.2836105E-1,-1.8062147E-1,2.6582623E-1,1.7313896E-2,2.9070997E-1,2.2928666E-2,-1.598817E-1,-3.391521E-1,-9.454767E-2],"split_indices":[14,34,11,38,16,0,0,22,37,2,11,0,0,0,0,0,0,0,0,0,0],"split_type":[0,0,0,0,0,0,0,0,0,0,0,0,0,0,0,0,0,0,0,0,0],"sum_hessian":[1.9053259E1,1.5446069E1,3.60719E0,9.934202E0,5.511866E0,1.6470488E0,1.960141E0,6.9061155E0,3.028087E0,3.3432088E0,2.1686575E0,1.0029129E0,5.9032025E0,1.4826554E0,1.5454315E0,1.4831469E0,1.8600619E0,1.0249906E0,1.1436669E0,4.3056664E0,1.5975363E0],"tree_param":{"num_deleted":"0","num_feature":"50","num_nodes":"21","size_leaf_vector":"1"}},{"base_weights":[-2.5393277E-2,-6.1128235E-1,1.3547665E-1,5.3900513E-3,-2.53801E-1,3.8114694E-1,-2.9310596E-1,-1.0847073E-1,7.523193E-1,1.20930515E-1,-6.83626E-1,1.7760666E-1,-4.979101E-1,3.0957E-1,3.406298E-2,-2.8271067E-1,2.3579944E-2,3.4250163E-2,-2.5232553E-1],"categories":[],"categories_nodes":[],"categories_segments":[],"categories_sizes":[],"default_left":[0,0,0,0,0,0,0,0,0,0,0,0,0,0,0,0,0,0,0],"id":5,"left_children":[1,3,5,-1,-1,7,9,11,13,-1,15,-1,17,-1,-1,-1,-1,-1,-1],"loss_changes":[1.835388E0,6.336311E-1,1.7339642E0,0E0,0E0,1.9404191E0,1.9555702E0,1.7363626E0,9.443481E-1,0E0,9.2794824E-1,0E0,9.2350256E-1,0E0,0E0,0E0,0E0,0E0,0E0],"parents":[2147483647,0,0,1,1,2,2,5,5,6,6,7,7,8,8,10,10,12,12],"right_children":[2,4,6,-1,-1,8,10,12,14,-1,16,-1,18,-1,-1,-1,-1,-1,-1],"split_conditions":[-7.3358697E-1,-3.618919E-1,4.2618325E-1,5.3900513E-3,-2.53801E-1,-4.5614593E-2,-3.972781E-1,-9.5052624E-1,7.991544E-2,1.20930515E-1,7.559578E-1,1.7760666E-1,-2.713409E-1,3.0957E-1,3.406298E-2,-2.8271067E-1,2.3579944E-2,3.4250163E-2,-2.5232553E-1],"split_indices":[43,40,3,0,0,40,23,19,31,0,6,0,36,0,0,0,0,0,0],"split_type":[0,0,0,0,0,0,0,0,0,0,0,0,0,0,0,0,0,0,0],"sum_hessian":[1.7594559E1,3.187137E0,1.4407423E1,1.1167533E0,2.0703835E0,9.228298E0,5.179125E0,4.2844257E0,4.9438725E0,1.8495619E0,3.3295627E0,1.3449837E0,2.939442E0,3.010707E0,1.9331653E0,2.3093123E0,1.0202504E0,1.2957318E0,1.6437101E0],"tree_param":{"num_deleted":"0","num_feature":"50","num_nodes":"19","size_leaf_vector":"1"}},{"base_weights":[-2.6019098E-2,3.0424392E-1,-3.178632E-1,-1.8055159E-1,6.263509E-1,3.2136473E-1,-5.717747E-1,-1.0805336E-1,9.3031424E-1,-8.338431E-2,2.2080234E-1,-1.3192101E-1,-2.654015E-1,3.1816107E-1,7.751012E-2,-4.7005296E-1,1.3629103E-1,-1.8058635E-3,-2.101721E-1],"categories":[],"categories_nodes":[],"categories_segments":[],"categories_sizes":[],"default_left":[0,0,0,0,0,0,0,0,0,0,0,0,0,0,0,0,0,0,0],"id":6,"left_children":[1,3,5,-1,7,9,11,-1,13,-1,-1,15,-1,-1,-1,17,-1,-1,-1],"loss_changes":[1.7512274E0,2.8763375E0,1.7422128E0,0E0,2.3765311E0,1.0420014E0,8.786261E-1,0E0,2.0580482E-1,0E0,0E0,1.042387E0,0E0,0E0,0E0,3.3202034E-1,0E0,0E0,0E0],"parents":[2147483647,0,0,1,1,2,2,4,4,5,5,6,6,8,8,11,11,15,15],"right_children":[2,4,6,-1,8,10,12,-1,14,-1,-1,16,-1,-1,-1,18,-1,-1,-1],"split_conditions":[2.5800986E-2,-6.9790995E-1,-6.8928206E-1,-1.8055159E-1,-6.582174E-1,1.0755527E-2,1.949931E-1,-1.0805336E-1,7.337436E-1,-8.338431E-2,2.2080234E-1,4.2486623E-1,-2.654015E-1,3.1816107E-1,7.751012E-2,-4.3575355E-1,1.3629103E-1,-1.8058635E-3,-2.101721E-1],"split_indices":[22,33,40,0,37,44,3,0,7,0,0,43,0,0,0,34,0,0,0],"split_type":[0,0,0,0,0,0,0,0,0,0,0,0,0,0,0,0,0,0,0],"sum_hessian":[1.616568E1,7.563743E0,8.601936E0,1.7559204E0,5.8078227E0,2.3699293E0,6.232007E0,1.324418E0,4.4834046E0,1.1039637E0,1.2659657E0,3.1813908E0,3.0506163E0,3.2711549E0,1.2122499E0,2.1433082E0,1.0380827E0,1.0519224E0,1.0913856E0],"tree_param":{"num_deleted":"0","num_feature":"50","num_nodes":"19","size_leaf_vector":"1"}},{"base_weights":[-2.4852376E-2,-1.736206E-1,4.8840624E-1,-4.373719E-1,2.2074217E-1,-1.2047987E-2,2.3639566E-1,-1.312798E-3,-7.858517E-1,-1.339214E-1,5.021145E-1,-3.486331E-1,1.6415082E-1,-6.6435024E-2,-2.665254E-1,2.4846122E-1,4.2866752E-3,-1.8955128E-1,1.9249808E-2],"categories":[],"categories_nodes":[],"categories_segments":[],"categories_sizes":[],"default_left":[0,0,0,0,0,0,0,0,0,0,0,0,0,0,0,0,0,0,0],"id":7,"left_children":[1,3,5,7,9,-1,-1,11,13,-1,15,17,-1,-1,-1,-1,-1,-1,-1],"loss_changes":[1.2847023E0,1.4405007E0,6.3234615E-1,1.2264909E0,1.3209531E0,0E0,0E0,1.0651168E0,6.307721E-2,0E0,7.167705E-1,4.404877E-1,0E0,0E0,0E0,0E0,0E0,0E0,0E0],"parents":[2147483647,0,0,1,1,2,2,3,3,4,4,7,7,8,8,10,10,11,11],"right_children":[2,4,6,8,10,-1,-1,12,14,-1,16,18,-1,-1,-1,-1,-1,-1,-1],"split_conditions":[9.945115E-1,2.964829E-1,1.2740737E-1,-2.7908978E-1,-3.218582E-1,-1.2047987E-2,2.3639566E-1,1.2955877E-1,-3.4741554E-1,-1.339214E-1,-7.149717E-2,-4.282089E-1,1.6415082E-1,-6.6435024E-2,-2.665254E-1,2.4846122E-1,4.2866752E-3,-1.8955128E-1,1.9249808E-2],"split_indices":[14,34,11,2,9,0,0,24,45,0,23,33,0,0,0,0,0,0,0],"split_type":[0,0,0,0,0,0,0,0,0,0,0,0,0,0,0,0,0,0,0],"sum_hessian":[1.4714495E1,1.1920936E1,2.7935596E0,7.078049E0,4.8428864E0,1.3238156E0,1.4697438E0,3.5898154E0,3.488234E0,1.2626227E0,3.5802636E0,2.4210682E0,1.1687473E0,1.0222248E0,2.4660091E0,1.7276564E0,1.8526073E0,1.1212248E0,1.2998433E0],"tree_param":{"num_deleted":"0","num_feature":"50","num_nodes":"19","size_leaf_vector":"1"}},{"base_weights":[-1.930027E-2,-4.6575826E-1,1.351825E-1,-2.1523285E-1,1.0827956E-3,-6.311477E-2,5.979699E-1,3.814183E-1,-4.672372E-1,4.2268865E-2,2.2113009E-1,-6.977929E-2,1.9793849E-1,5.4890078E-2,-6.861327E-1,-2.5119025E-1,-3.6525127E-2],"categories":[],"categories_nodes":[],"categories_segments":[],"categories_sizes":[],"default_left":[0,0,0,0,0,0,0,0,0,0,0,0,0,0,0,0,0],"id":8,"left_children":[1,3,5,-1,-1,7,9,11,13,-1,-1,-1,-1,-1,15,-1,-1],"loss_changes":[1.0706847E0,4.728728E-1,1.1050227E0,0E0,0E0,1.8032968E0,1.24061346E-1,9.838693E-1,8.639076E-1,0E0,0E0,0E0,0E0,0E0,2.4715042E-1,0E0,0E0],"parents":[2147483647,0,0,1,1,2,2,5,5,6,6,7,7,8,8,14,14],"right_children":[2,4,6,-1,-1,8,10,12,14,-1,-1,-1,-1,-1,16,-1,-1],"split_conditions":[-6.090086E-1,1.9879858E-1,8.8552725E-1,-2.1523285E-1,1.0827956E-3,-4.231473E-2,-7.1613365E-1,-7.8984356E-1,-8.0413014E-1,4.2268865E-2,2.2113009E-1,-6.977929E-2,1.9793849E-1,5.4890078E-2,5.0348765E-1,-2.5119025E-1,-3.6525127E-2],"split_indices":[43,11,24,0,0,23,47,38,24,0,0,0,0,0,36,0,0],"split_type":[0,0,0,0,0,0,0,0,0,0,0,0,0,0,0,0,0],"sum_hessian":[1.3611011E1,2.9809778E0,1.0630033E1,1.5964159E0,1.3845618E0,8.046046E0,2.5839863E0,3.8582108E0,4.187835E0,1.0726823E0,1.511304E0,1.2548454E0,2.6033654E0,1.096108E0,3.0917273E0,2.0571547E0,1.0345726E0],"tree_param":{"num_deleted":"0","num_feature":"50","num_nodes":"17","size_leaf_vector":"1"}},{"base_weights":[-1.9997688E-2,-1.5989433E-1,4.4799387E-1,-3.7995613E-1,1.9931011E-1,1.0359067E-3,2.0569329E-1,-6.099298E-1,5.133464E-2,-7.117311E-2,4.9270615E-1,1.2853599E-2,-2.3574331E-1,2.0427367E-1,1.009669E-2],"categories":[],"categories_nodes":[],"categories_segments":[],"categories_sizes":[],"default_left":[0,0,0,0,0,0,0,0,0,0,0,0,0,0,0],"id":9,"left_children":[1,3,5,7,9,-1,-1,11,-1,-1,13,-1,-1,-1,-1],"loss_changes":[9.617907E-1,9.6139836E-1,3.5598505E-1,1.0284845E0,7.4608934E-1,0E0,0E0,6.4950585E-1,0E0,0E0,2.5898826E-1,0E0,0E0,0E0,0E0],"parents":[2147483647,0,0,1,1,2,2,3,3,4,4,7,7,10,10],"right_children":[2,4,6,8,10,-1,-1,12,-1,-1,14,-1,-1,-1,-1],"split_conditions":[9.945115E-1,3.8065037E-1,1.2740737E-1,7.4324834E-1,-5.285867E-1,1.0359067E-3,2.0569329E-1,-7.637605E-1,5.133464E-2,-7.117311E-2,1.8732443E-1,1.2853599E-2,-2.3574331E-1,2.0427367E-1,1.009669E-2],"split_indices":[14,34,11,38,47,0,0,46,0,0,6,0,0,0,0],"split_type":[0,0,0,0,0,0,0,0,0,0,0,0,0,0,0],"sum_hessian":[1.2596347E1,1.0204312E1,2.392034E0,6.2918954E0,3.9124172E0,1.1867218E0,1.2053124E0,4.3639297E0,1.9279655E0,1.6494833E0,2.2629337E0,1.0867827E0,3.2771473E0,1.2621567E0,1.0007771E0],"tree_param":{"num_deleted":"0","num_feature":"50","num_nodes":"15","size_leaf_vector":"1"}},{"base_weights":[-2.606331E-3,1.7999429E-1,-3.363616E-1,3.4310704E-1,-2.5548542E-1,-1.9602339E-1,3.53478E-2,2.2037436E-1,-7.2448686E-2,1.9112235E-2,-1.3429649E-1,1.11667305E-1,-1.3583662E-1],"categories":[],"categories_nodes":[],"categories_segments":[],"categories_sizes":[],"default_left":[0,0,0,0,0,0,0,0,0,0,0,0,0],"id":10,"left_children":[1,3,5,7,9,-1,-1,-1,11,-1,-1,-1,-1],"loss_changes":[8.416421E-1,7.223817E-1,7.798518E-1,1.1801937E0,2.1303393E-1,0E0,0E0,0E0,8.9082265E-1,0E0,0E0,0E0,0E0],"parents":[2147483647,0,0,1,1,2,2,3,3,4,4,8,8],"right_children":[2,4,6,8,10,-1,-1,-1,12,-1,-1,-1,-1],"split_conditions":[4.2618325E-1,7.298528E-1,1.8172525E-1,-4.3951738E-1,-1.581511E-1,-1.9602339E-1,3.53478E-2,2.2037436E-1,7.991544E-2,1.9112235E-2,-1.3429649E-1,1.11667305E-1,-1.3583662E-1],"split_indices":[3,36,48,10,42,0,0,0,31,0,0,0,0],"split_type":[0,0,0,0,0,0,0,0,0,0,0,0,0],"sum_hessian":[1.1816686E1,7.9356933E0,3.8809922E0,5.927582E0,2.0081112E0,2.0272293E0,1.8537629E0,2.6569219E0,3.2706602E0,1.0058618E0,1.0022494E0,1.5176469E0,1.7530131E0],"tree_param":{"num_deleted":"0","num_feature":"50","num_nodes":"13","size_leaf_vector":"1"}},{"base_weights":[-8.342088E-3,3.8568074E-1,-1.568244E-1,-4.457363E-2,2.1345392E-1,1.2031915E-1,-3.1802812E-1,4.175258E-2,-6.592426E-1,-1.07813075E-1,1.365341E-1,-4.463148E-2,-2.3567098E-1],"categories":[],"categories_nodes":[],"categories_segments":[],"categories_sizes":[],"default_left":[0,0,0,0,0,0,0,0,0,0,0,0,0],"id":11,"left_children":[1,3,5,-1,-1,-1,7,9,11,-1,-1,-1,-1],"loss_changes":[7.664037E-1,7.309164E-1,9.7961766E-1,0E0,0E0,0E0,9.983549E-1,9.577625E-1,1.4870954E-1,0E0,0E0,0E0,0E0],"parents":[2147483647,0,0,1,1,2,2,6,6,7,7,8,8],"right_children":[2,4,6,-1,-1,-1,8,10,12,-1,-1,-1,-1],"split_conditions":[-6.570373E-1,4.6904355E-2,-8.74543E-1,-4.457363E-2,2.1345392E-1,1.2031915E-1,-1.24298245E-1,-3.445513E-1,-6.7398566E-1,-1.07813075E-1,1.365341E-1,-4.463148E-2,-2.3567098E-1],"split_indices":[20,44,36,0,0,0,31,18,23,0,0,0,0],"split_type":[0,0,0,0,0,0,0,0,0,0,0,0,0],"sum_hessian":[1.1065884E1,2.5914767E0,8.474407E0,1.1878272E0,1.4036496E0,1.5662057E0,6.908201E0,3.789812E0,3.118389E0,1.9896424E0,1.8001697E0,1.0506258E0,2.067763E0],"tree_param":{"num_deleted":"0","num_feature":"50","num_nodes":"13","size_leaf_vector":"1"}},{"base_weights":[-4.0421337E-3,-4.0428647E-1,1.3568817E-1,1.5218573E-3,-1.8102573E-1,-2.267242E-2,1.8701291E-1,3.4250414E-1,-2.7275792E-1,1.8031093E-1,-2.5362948E-2,1.15330406E-1,-1.6972649E-1,-5.2997172E-2,1.0339868E-1],"categories":[],"categories_nodes":[],"categories_segments":[],"categories_sizes":[],"default_left":[0,0,0,0,0,0,0,0,0,0,0,0,0,0,0],"id":12,"left_children":[1,3,5,-1,-1,7,-1,9,11,-1,-1,13,-1,-1,-1],"loss_changes":[6.8565905E-1,2.6147085E-1,7.1763885E-1,0E0,0E0,8.095219E-1,0E0,4.5164463E-1,6.5774786E-1,0E0,0E0,2.6661152E-1,0E0,0E0,0E0],"parents":[2147483647,0,0,1,1,2,2,5,5,7,7,8,8,11,11],"right_children":[2,4,6,-1,-1,8,-1,10,12,-1,-1,14,-1,-1,-1],"split_conditions":[-6.090086E-1,-9.808885E-3,1.1928145E0,1.5218573E-3,-1.8102573E-1,1.1654114E-1,1.8701291E-1,-2.531405E-1,5.8704592E-2,1.8031093E-1,-2.5362948E-2,1.1509338E-1,-1.6972649E-1,-5.2997172E-2,1.0339868E-1],"split_indices":[43,2,26,0,0,43,0,45,46,0,0,34,0,0,0],"split_type":[0,0,0,0,0,0,0,0,0,0,0,0,0,0,0],"sum_hessian":[1.0279175E1,2.1700206E0,8.109155E0,1.0290712E0,1.1409494E0,6.841209E0,1.2679456E0,2.6305354E0,4.210674E0,1.3847755E0,1.2457597E0,2.0722535E0,2.13842E0,1.0126389E0,1.0596147E0],"tree_param":{"num_deleted":"0","num_feature":"50","num_nodes":"15","size_leaf_vector":"1"}},{"base_weights":[1.0826838E-3,1.3793503E-1,-3.587024E-1,2.9142198E-1,-9.88579E-2,-1.3465636E-3,-1.6925068E-1,4.8585525E-1,-1.00864545E-1,2.0917599E-1,-8.798125E-3],"categories":[],"categories_nodes":[],"categories_segments":[],"categories_sizes":[],"default_left":[0,0,0,0,0,0,0,0,0,0,0],"id":13,"left_children":[1,3,5,7,-1,-1,-1,9,-1,-1,-1],"loss_changes":[5.7188433E-1,6.993386E-1,2.3046216E-1,1.0005997E0,0E0,0E0,0E0,6.35465E-1,0E0,0E0,0E0],"parents":[2147483647,0,0,1,1,2,2,3,3,7,7],"right_children":[2,4,6,8,-1,-1,-1,10,-1,-1,-1],"split_conditions":[5.5333346E-1,8.4572905E-1,-3.8041773E-1,9.5134324E-1,-9.88579E-2,-1.3465636E-3,-1.6925068E-1,3.8343135E-1,-1.00864545E-1,2.0917599E-1,-8.798125E-3],"split_indices":[15,2,36,10,0,0,0,29,0,0,0],"split_type":[0,0,0,0,0,0,0,0,0,0,0],"sum_hessian":[9.609951E0,7.4085574E0,2.2013934E0,5.8608003E0,1.5477574E0,1.1832962E0,1.018097E0,4.647093E0,1.2137073E0,3.0444384E0,1.6026545E0],"tree_param":{"num_deleted":"0","num_feature":"50","num_nodes":"11","size_leaf_vector":"1"}},{"base_weights":[-1.4325292E-2,2.2666998E-1,-2.3670183E-1,-8.233018E-2,4.744266E-1,-4.7263733E-1,9.190407E-2,2.0452605E-3,1.9161557E-1,-1.8300433E-1,-2.3224358E-2,-6.669223E-2,1.0169853E-1],"categories":[],"categories_nodes":[],"categories_segments":[],"categories_sizes":[],"default_left":[0,0,0,0,0,0,0,0,0,0,0,0,0],"id":14,"left_children":[1,3,5,-1,7,9,11,-1,-1,-1,-1,-1,-1],"loss_changes":[5.9271646E-1,7.9293287E-1,4.8695537E-1,0E0,2.98217E-1,1.4240652E-1,3.259784E-1,0E0,0E0,0E0,0E0,0E0,0E0],"parents":[2147483647,0,0,1,1,2,2,4,4,5,5,6,6],"right_children":[2,4,6,-1,8,10,12,-1,-1,-1,-1,-1,-1],"split_conditions":[2.5800986E-2,-3.5910344E-1,4.6904355E-2,-8.233018E-2,-3.218582E-1,-2.724847E-1,-2.953816E-1,2.0452605E-3,1.9161557E-1,-1.8300433E-1,-2.3224358E-2,-6.669223E-2,1.0169853E-1],"split_indices":[22,33,44,0,9,1,27,0,0,0,0,0,0],"split_type":[0,0,0,0,0,0,0,0,0,0,0,0,0],"sum_hessian":[9.058708E0,4.3380947E0,4.7206135E0,1.3996122E0,2.9384825E0,2.492625E0,2.2279885E0,1.03478E0,1.9037024E0,1.4463966E0,1.0462285E0,1.0249367E0,1.2030518E0],"tree_param":{"num_deleted":"0","num_feature":"50","num_nodes":"13","size_leaf_vector":"1"}},{"base_weights":[-1.6206402E-2,-1.4902225E-1,1.12979256E-1,8.4667675E-2,-2.831717E-1,-5.314335E-1,5.9169706E-2,-6.6804043E-3,-2.0723514E-1],"categories":[],"categories_nodes":[],"categories_segments":[],"categories_sizes":[],"default_left":[0,0,0,0,0,0,0,0,0],"id":15,"left_children":[1,3,-1,-1,5,7,-1,-1,-1],"loss_changes":[5.556633E-1,5.353355E-1,0E0,0E0,8.804649E-1,3.5446668E-1,0E0,0E0,0E0],"parents":[2147483647,0,0,1,1,4,4,5,5],"right_children":[2,4,-1,-1,6,8,-1,-1,-1],"split_conditions":[9.945115E-1,-8.0413014E-1,1.12979256E-1,8.4667675E-2,4.7136903E-1,-6.088747E-1,5.9169706E-2,-6.6804043E-3,-2.0723514E-1],"split_indices":[14,24,0,0,24,23,0,0,0],"split_type":[0,0,0,0,0,0,0,0,0],"sum_hessian":[8.575164E0,6.872153E0,1.7030106E0,1.3686297E0,5.5035233E0,3.5584013E0,1.9451219E0,1.1198698E0,2.4385314E0],"tree_param":{"num_deleted":"0","num_feature":"50","num_nodes":"9","size_leaf_vector":"1"}},{"base_weights":[-1.028698E-2,-1.1345254E-1,1.2579846E-1,3.2945642E-1,-1.2754914E-1,4.9714193E-1,-2.471415E-2,-1.1962015E-1,8.0285914E-2,1.8801607E-1,3.0956058E-2],"categories":[],"categories_nodes":[],"categories_segments":[],"categories_sizes":[],"default_left":[0,0,0,0,0,0,0,0,0,0,0],"id":16,"left_children":[1,-1,3,5,7,9,-1,-1,-1,-1,-1],"loss_changes":[5.046303E-1,0E0,4.2458862E-1,3.4408972E-1,5.3805614E-1,1.0182619E-1,0E0,0E0,0E0,0E0,0E0],"parents":[2147483647,0,0,2,2,3,3,4,4,5,5],"right_children":[2,-1,4,6,8,10,-1,-1,-1,-1,-1],"split_conditions":[-6.090086E-1,-1.1345254E-1,3.3685204E-1,4.067378E-1,3.458848E-1,-1.3336934E-1,-2.471415E-2,-1.1962015E-1,8.0285914E-2,1.8801607E-1,3.0956058E-2],"split_indices":[43,0,43,36,41,16,0,0,0,0,0],"split_type":[0,0,0,0,0,0,0,0,0,0,0],"sum_hessian":[8.129403E0,1.7147801E0,6.414623E0,3.3895006E0,3.0251224E0,2.2615457E0,1.1279548E0,1.7886437E0,1.2364786E0,1.2571926E0,1.004353E0],"tree_param":{"num_deleted":"0","num_feature":"50","num_nodes":"11","size_leaf_vector":"1"}},{"base_weights":[-1.9268008E-3,2.0899715E-1,-1.9550392E-1,4.275765E-1,-7.412763E-2,-3.9861983E-1,4.7625903E-2,1.8318814E-1,-5.0233006E-3,-4.561867E-3,-1.6735017E-1],"categories":[],"categories_nodes":[],"categories_segments":[],"categories_sizes":[],"default_left":[0,0,0,0,0,0,0,0,0,0,0],"id":17,"left_children":[1,3,5,7,-1,9,-1,-1,-1,-1,-1],"loss_changes":[3.975128E-1,5.705682E-1,4.2820364E-1,2.9642767E-1,0E0,2.0567435E-1,0E0,0E0,0E0,0E0,0E0],"parents":[2147483647,0,0,1,1,2,2,3,3,5,5],"right_children":[2,4,6,8,-1,10,-1,-1,-1,-1,-1],"split_conditions":[-1.13050655E-1,5.012395E-1,5.9585977E-1,4.6145272E-1,-7.412763E-2,-5.284155E-1,4.7625903E-2,1.8318814E-1,-5.0233006E-3,-4.561867E-3,-1.6735017E-1],"split_indices":[10,2,24,36,0,49,0,0,0,0,0],"split_type":[0,0,0,0,0,0,0,0,0,0,0],"sum_hessian":[7.7350616E0,3.6635525E0,4.071509E0,2.5188954E0,1.1446573E0,2.5081906E0,1.5633184E0,1.5188632E0,1.0000321E0,1.0573725E0,1.4508182E0],"tree_param":{"num_deleted":"0","num_feature":"50","num_nodes":"11","size_leaf_vector":"1"}},{"base_weights":[-3.5261612E-3,-1.5040787E-1,2.8713948E-1,1.2296107E-1,-1.4125384E-1,1.402058E-1,-8.1269E-3,-4.2956483E-2,1.0049127E-1],"categories":[],"categories_nodes":[],"categories_segments":[],"categories_sizes":[],"default_left":[0,0,0,0,0,0,0,0,0],"id":18,"left_children":[1,3,5,7,-1,-1,-1,-1,-1],"loss_changes":[3.992888E-1,6.007525E-1,1.9068411E-1,2.8140593E-1,0E0,0E0,0E0,0E0,0E0],"parents":[2147483647,0,0,1,1,2,2,3,3],"right_children":[2,4,6,8,-1,-1,-1,-1,-1],"split_conditions":[5.2010185E-1,1.949931E-1,-4.138319E-1,-8.024261E-1,-1.4125384E-1,1.402058E-1,-8.1269E-3,-4.2956483E-2,1.0049127E-1],"split_indices":[34,3,49,3,0,0,0,0,0],"split_type":[0,0,0,0,0,0,0,0,0],"sum_hessian":[7.3408732E0,5.197146E0,2.1437275E0,3.1371152E0,2.0600307E0,1.0526974E0,1.0910301E0,1.5348883E0,1.6022271E0],"tree_param":{"num_deleted":"0","num_feature":"50","num_nodes":"9","size_leaf_vector":"1"}},{"base_weights":[3.298169E-3,-9.373227E-2,1.3649647E-1,-6.284644E-2,2.617293E-1,-2.383993E-2,4.416286E-1,2.2205165E-2,1.707275E-1],"categories":[],"categories_nodes":[],"categories_segments":[],"categories_sizes":[],"default_left":[0,0,0,0,0,0,0,0,0],"id":19,"left_children":[1,-1,3,-1,5,-1,7,-1,-1],"loss_changes":[3.8087666E-1,0E0,3.300608E-1,0E0,3.486632E-1,0E0,1.217556E-1,0E0,0E0],"parents":[2147483647,0,0,2,2,4,4,6,6],"right_children":[2,-1,4,-1,6,-1,8,-1,-1],"split_conditions":[-5.1329976E-1,-9.373227E-2,-7.007448E-1,-6.284644E-2,-2.7695462E-1,-2.383993E-2,-4.5614593E-2,2.2205165E-2,1.707275E-1],"split_indices":[43,0,48,0,33,0,40,0,0],"split_type":[0,0,0,0,0,0,0,0,0],"sum_hessian":[7.042381E0,1.6901926E0,5.352188E0,1.2436179E0,4.10857E0,1.6111491E0,2.497421E0,1.0499616E0,1.4474595E0],"tree_param":{"num_deleted":"0","num_feature":"50","num_nodes":"9","size_leaf_vector":"1"}},{"base_weights":[5.351249E-3,-1.1824002E-1,9.727166E-2,7.3318005E-2,-2.4174005E-1,-4.330264E-1,3.467632E-2,-1.677916E-2,-1.6833131E-1],"categories":[],"categories_nodes":[],"categories_segments":[],"categories_sizes":[],"default_left":[0,0,0,0,0,0,0,0,0],"id":20,"left_children":[1,3,-1,-1,5,7,-1,-1,-1],"loss_changes":[3.4523857E-1,3.4323186E-1,0E0,0E0,4.0791857E-1,1.4349389E-1,0E0,0E0,0E0],"parents":[2147483647,0,0,1,1,4,4,5,5],"right_children":[2,4,-1,-1,6,8,-1,-1,-1],"split_conditions":[9.945115E-1,-8.0413014E-1,9.727166E-2,7.3318005E-2,4.7136903E-1,-3.42612E-1,3.467632E-2,-1.677916E-2,-1.6833131E-1],"split_indices":[14,24,0,0,24,23,0,0,0],"split_type":[0,0,0,0,0,0,0,0,0],"sum_hessian":[6.787037E0,5.344774E0,1.4422631E0,1.1091326E0,4.235641E0,2.6208105E0,1.6148307E0,1.0287083E0,1.592102E0],"tree_param":{"num_deleted":"0","num_feature":"50","num_nodes":"9","size_leaf_vector":"1"}},{"base_weights":[4.976507E-3,1.3711168E-1,-8.98162E-2,3.5765207E-1,-1.4604972E-1,1.4678246E-1,6.6461726E-3,5.6723136E-2,-1.1336936E-1],"categories":[],"categories_nodes":[],"categories_segments":[],"categories_sizes":[],"default_left":[0,0,0,0,0,0,0,0,0],"id":21,"left_children":[1,3,-1,5,7,-1,-1,-1,-1],"loss_changes":[3.4360123E-1,4.226495E-1,0E0,1.4921209E-1,3.2840848E-1,0E0,0E0,0E0,0E0],"parents":[2147483647,0,0,1,1,3,3,4,4],"right_children":[2,4,-1,6,8,-1,-1,-1,-1],"split_conditions":[7.298528E-1,7.441042E-2,-8.98162E-2,1.8711439E-1,-4.9591664E-4,1.4678246E-1,6.6461726E-3,5.6723136E-2,-1.1336936E-1],"split_indices":[36,10,0,2,27,0,0,0,0],"split_type":[0,0,0,0,0,0,0,0,0],"sum_hessian":[6.5229506E0,4.931517E0,1.5914335E0,2.6244192E0,2.307098E0,1.5557235E0,1.0686958E0,1.0188587E0,1.2882392E0],"tree_param":{"num_deleted":"0","num_feature":"50","num_nodes":"9","size_leaf_vector":"1"}},{"base_weights":[5.1051416E-3,-9.884491E-2,1.1390904E-1,2.2278142E-1,-5.5863526E-2,3.53494E-1,-2.7947953E-2,7.121483E-4,1.6941601E-1],"categories":[],"categories_nodes":[],"categories_segments":[],"categories_sizes":[],"default_left":[0,0,0,0,0,0,0,0,0],"id":22,"left_children":[1,-1,3,5,-1,7,-1,-1,-1],"loss_changes":[3.0208912E-1,0E0,2.4495038E-1,2.4043809E-1,0E0,2.7772918E-1,0E0,0E0,0E0],"parents":[2147483647,0,0,2,2,3,3,5,5],"right_children":[2,-1,4,6,-1,8,-1,-1,-1],"split_conditions":[-7.3358697E-1,-9.884491E-2,5.6234866E-1,6.047287E-1,-5.5863526E-2,4.381043E-2,-2.7947953E-2,7.121483E-4,1.6941601E-1],"split_indices":[43,0,46,4,0,6,0,0,0],"split_type":[0,0,0,0,0,0,0,0,0],"sum_hessian":[6.2671795E0,1.0401957E0,5.226984E0,4.024678E0,1.2023057E0,2.7627866E0,1.2618917E0,1.4175829E0,1.3452038E0],"tree_param":{"num_deleted":"0","num_feature":"50","num_nodes":"9","size_leaf_vector":"1"}},{"base_weights":[3.3521089E-3,1.9604427E-1,-1.7602384E-1,1.15550585E-1,-3.8649578E-2,-1.0835499E-1,2.7186433E-2],"categories":[],"categories_nodes":[],"categories_segments":[],"categories_sizes":[],"default_left":[0,0,0,0,0,0,0],"id":23,"left_children":[1,3,5,-1,-1,-1,-1],"loss_changes":[2.7770343E-1,2.8710708E-1,2.3865205E-1,0E0,0E0,0E0,0E0],"parents":[2147483647,0,0,1,1,2,2],"right_children":[2,4,6,-1,-1,-1,-1],"split_conditions":[2.5800986E-2,-5.2497047E-3,4.6904355E-2,1.15550585E-1,-3.8649578E-2,-1.0835499E-1,2.7186433E-2],"split_indices":[22,49,44,0,0,0,0],"split_type":[0,0,0,0,0,0,0],"sum_hessian":[6.036008E0,2.8651915E0,3.1708167E0,1.693656E0,1.1715355E0,1.6621015E0,1.5087152E0],"tree_param":{"num_deleted":"0","num_feature":"50","num_nodes":"7","size_leaf_vector":"1"}},{"base_weights":[1.8668507E-3,9.344438E-2,-1.091763E-1,8.9900665E-2,-2.6208848E-1,-4.2974886E-1,3.549136E-2,-2.816079E-2,-1.6072401E-1],"categories":[],"categories_nodes":[],"categories_segments":[],"categories_sizes":[],"default_left":[0,0,0,0,0,0,0,0,0],"id":24,"left_children":[1,-1,3,-1,5,7,-1,-1,-1],"loss_changes":[2.700295E-1,0E0,4.4072098E-1,0E0,3.537675E-1,7.4766934E-2,0E0,0E0,0E0],"parents":[2147483647,0,0,2,2,4,4,5,5],"right_children":[2,-1,4,-1,6,8,-1,-1,-1],"split_conditions":[-8.605183E-1,9.344438E-2,-6.570373E-1,8.9900665E-2,5.348967E-1,-5.363317E-1,3.549136E-2,-2.816079E-2,-1.6072401E-1],"split_indices":[36,0,20,0,40,29,0,0,0],"split_type":[0,0,0,0,0,0,0,0,0],"sum_hessian":[5.865018E0,1.0717317E0,4.7932863E0,1.0435022E0,3.749784E0,2.512594E0,1.2371899E0,1.0550362E0,1.4575578E0],"tree_param":{"num_deleted":"0","num_feature":"50","num_nodes":"9","size_leaf_vector":"1"}},{"base_weights":[4.5472328E-3,-2.0638818E-1,1.57311E-1,2.5798863E-2,-1.1654145E-1,3.1865042E-1,-5.885751E-2,8.185345E-3,1.2850632E-1],"categories":[],"categories_nodes":[],"categories_segments":[],"categories_sizes":[],"default_left":[0,0,0,0,0,0,0,0,0],"id":25,"left_children":[1,3,5,-1,-1,7,-1,-1,-1],"loss_changes":[2.45812E-1,2.044864E-1,3.1388593E-1,0E0,0E0,9.72226E-2,0E0,0E0,0E0],"parents":[2147483647,0,0,1,1,2,2,5,5],"right_children":[2,4,6,-1,-1,8,-1,-1,-1],"split_conditions":[-1.9437739E-1,-3.515158E-1,4.6145272E-1,2.5798863E-2,-1.1654145E-1,-4.7234383E-1,-5.885751E-2,8.185345E-3,1.2850632E-1],"split_indices":[8,19,36,0,0,13,0,0,0],"split_type":[0,0,0,0,0,0,0,0,0],"sum_hessian":[5.620828E0,2.2134626E0,3.4073656E0,1.0519614E0,1.1615012E0,2.4072723E0,1.0000932E0,1.0000145E0,1.4072577E0],"tree_param":{"num_deleted":"0","num_feature":"50","num_nodes":"9","size_leaf_vector":"1"}},{"base_weights":[1.4595243E-3,-1.0796538E-1,8.199875E-2,-2.335725E-1,5.551078E-2,2.6729446E-2,-3.8260472E-1,-1.3978894E-1,-3.2985356E-2],"categories":[],"categories_nodes":[],"categories_segments":[],"categories_sizes":[],"default_left":[0,0,0,0,0,0,0,0,0],"id":26,"left_children":[1,3,-1,5,-1,-1,7,-1,-1],"loss_changes":[2.2098887E-1,2.3850064E-1,0E0,2.3394433E-1,0E0,0E0,1.767379E-2,0E0,0E0],"parents":[2147483647,0,0,1,1,3,3,6,6],"right_children":[2,4,-1,6,-1,-1,8,-1,-1],"split_conditions":[9.945115E-1,7.4806297E-1,8.199875E-2,-5.880941E-1,5.551078E-2,2.6729446E-2,-1.3329092E-1,-1.3978894E-1,-3.2985356E-2],"split_indices":[14,19,0,19,0,0,39,0,0],"split_type":[0,0,0,0,0,0,0,0,0],"sum_hessian":[5.4364114E0,4.3061185E0,1.1302929E0,3.1559975E0,1.1501209E0,1.124181E0,2.0318165E0,1.0130907E0,1.0187256E0],"tree_param":{"num_deleted":"0","num_feature":"50","num_nodes":"9","size_leaf_vector":"1"}},{"base_weights":[-1.1108667E-3,-7.274637E-2,1.260316E-1,9.368591E-2,-3.4775745E-2],"categories":[],"categories_nodes":[],"categories_segments":[],"categories_sizes":[],"default_left":[0,0,0,0,0],"id":27,"left_children":[1,-1,3,-1,-1],"loss_changes":[2.2331989E-1,0E0,2.5124732E-1,0E0,0E0],"parents":[2147483647,0,0,2,2],"right_children":[2,-1,4,-1,-1],"split_conditions":[-4.280582E-1,-7.274637E-2,-4.231473E-2,9.368591E-2,-3.4775745E-2],"split_indices":[43,0,23,0,0],"split_type":[0,0,0,0,0],"sum_hessian":[5.280982E0,1.5089885E0,3.7719936E0,1.9670489E0,1.8049449E0],"tree_param":{"num_deleted":"0","num_feature":"50","num_nodes":"5","size_leaf_vector":"1"}},{"base_weights":[-2.7747038E-3,7.654071E-2,-1.0883182E-1,-2.6476175E-1,6.833144E-2,5.2451254E-3,-1.4183825E-1],"categories":[],"categories_nodes":[],"categories_segments":[],"categories_sizes":[],"default_left":[0,0,0,0,0,0,0],"id":28,"left_children":[1,-1,3,5,-1,-1,-1],"loss_changes":[1.9650306E-1,0E0,3.2652926E-1,2.3895502E-1,0E0,0E0,0E0],"parents":[2147483647,0,0,2,2,3,3],"right_children":[2,-1,4,6,-1,-1,-1],"split_conditions":[-6.570373E-1,7.654071E-2,6.343908E-1,-4.231473E-2,6.833144E-2,5.2451254E-3,-1.4183825E-1],"split_indices":[20,0,33,23,0,0,0],"split_type":[0,0,0,0,0,0,0],"sum_hessian":[5.1687846E0,1.0965481E0,4.0722365E0,2.9288783E0,1.1433585E0,1.631422E0,1.2974561E0],"tree_param":{"num_deleted":"0","num_feature":"50","num_nodes":"7","size_leaf_vector":"1"}},{"base_weights":[-1.7264715E-3,-1.288596E-1,7.160924E-2,9.23235E-2,-1.1011014E-1,7.542454E-2,-3.307938E-2],"categories":[],"categories_nodes":[],"categories_segments":[],"categories_sizes":[],"default_left":[0,0,0,0,0,0,0],"id":29,"left_children":[1,3,-1,5,-1,-1,-1],"loss_changes":[2.1409783E-1,2.747869E-1,0E0,1.2989281E-1,0E0,0E0,0E0],"parents":[2147483647,0,0,1,1,3,3],"right_children":[2,4,-1,6,-1,-1,-1],"split_conditions":[5.2010185E-1,1.949931E-1,7.160924E-2,1.347382E-1,-1.1011014E-1,7.542454E-2,-3.307938E-2],"split_indices":[34,3,0,18,0,0,0],"split_type":[0,0,0,0,0,0,0],"sum_hessian":[4.9981785E0,3.5729036E0,1.4252746E0,2.1700408E0,1.4028627E0,1.0805069E0,1.089534E0],"tree_param":{"num_deleted":"0","num_feature":"50","num_nodes":"7","size_leaf_vector":"1"}},{"base_weights":[-9.4148633E-4,1.723373E-1,-1.5336616E-1,-1.8807834E-2,1.0242863E-1,-9.558041E-2,3.797743E-2],"categories":[],"categories_nodes":[],"categories_segments":[],"categories_sizes":[],"default_left":[0,0,0,0,0,0,0],"id":30,"left_children":[1,3,5,-1,-1,-1,-1],"loss_changes":[1.8116839E-1,1.4908007E-1,2.0899153E-1,0E0,0E0,0E0,0E0],"parents":[2147483647,0,0,1,1,2,2],"right_children":[2,4,6,-1,-1,-1,-1],"split_conditions":[-1.13050655E-1,4.6904355E-2,5.9585977E-1,-1.8807834E-2,1.0242863E-1,-9.558041E-2,3.797743E-2],"split_indices":[10,44,24,0,0,0,0],"split_type":[0,0,0,0,0,0,0],"sum_hessian":[4.8586216E0,2.2126298E0,2.6459918E0,1.1890864E0,1.0235434E0,1.5771185E0,1.0688733E0],"tree_param":{"num_deleted":"0","num_feature":"50","num_nodes":"7","size_leaf_vector":"1"}},{"base_weights":[3.8434304E-3,-7.4275374E-2,1.11063115E-1,9.536091E-2,-6.718814E-2,-6.9386445E-2,3.9780688E-2],"categories":[],"categories_nodes":[],"categories_segments":[],"categories_sizes":[],"default_left":[0,0,0,0,0,0,0],"id":31,"left_children":[1,-1,3,-1,5,-1,-1],"loss_changes":[1.820982E-1,0E0,1.9501103E-1,0E0,1.4068288E-1,0E0,0E0],"parents":[2147483647,0,0,2,2,4,4],"right_children":[2,-1,4,-1,6,-1,-1],"split_conditions":[-5.8649594E-1,-7.4275374E-2,1.1654114E-1,9.536091E-2,1.4091727E-1,-6.9386445E-2,3.9780688E-2],"split_indices":[43,0,43,0,26,0,0],"split_type":[0,0,0,0,0,0,0],"sum_hessian":[4.734865E0,1.0241412E0,3.710724E0,1.3551803E0,2.3555439E0,1.2067298E0,1.1488141E0],"tree_param":{"num_deleted":"0","num_feature":"50","num_nodes":"7","size_leaf_vector":"1"}},{"base_weights":[1.341021E-3,1.6589431E-1,-1.4749789E-1,-1.6549679E-2,9.119546E-2,1.8570833E-2,-9.168925E-2],"categories":[],"categories_nodes":[],"categories_segments":[],"categories_sizes":[],"default_left":[0,0,0,0,0,0,0],"id":32,"left_children":[1,3,5,-1,-1,-1,-1],"loss_changes":[1.6197495E-1,1.1253222E-1,1.3406298E-1,0E0,0E0,0E0,0E0],"parents":[2147483647,0,0,1,1,2,2],"right_children":[2,4,6,-1,-1,-1,-1],"split_conditions":[2.5800986E-2,9.228408E-2,-2.8238617E-2,-1.6549679E-2,9.119546E-2,1.8570833E-2,-9.168925E-2],"split_indices":[22,25,29,0,0,0,0],"split_type":[0,0,0,0,0,0,0],"sum_hessian":[4.6143346E0,2.1370573E0,2.477277E0,1.0525738E0,1.0844835E0,1.3276862E0,1.149591E0],"tree_param":{"num_deleted":"0","num_feature":"50","num_nodes":"7","size_leaf_vector":"1"}},{"base_weights":[1.1948275E-3,1.41917E-1,-1.5070343E-1,-3.5744883E-2,1.0672035E-1,3.6518306E-2,-1.0087517E-1],"categories":[],"categories_nodes":[],"categories_segments":[],"categories_sizes":[],"default_left":[0,0,0,0,0,0,0],"id":33,"left_children":[1,3,5,-1,-1,-1,-1],"loss_changes":[1.3938124E-1,2.310849E-1,1.9963428E-1,0E0,0E0,0E0,0E0],"parents":[2147483647,0,0,1,1,2,2],"right_children":[2,4,6,-1,-1,-1,-1],"split_conditions":[7.991544E-2,2.3112197E-1,-2.7942732E-1,-3.5744883E-2,1.0672035E-1,3.6518306E-2,-1.0087517E-1],"split_indices":[31,14,14,0,0,0,0],"split_type":[0,0,0,0,0,0,0],"sum_hessian":[4.520064E0,2.3804593E0,2.1396046E0,1.2711561E0,1.1093034E0,1.0061983E0,1.1334062E0],"tree_param":{"num_deleted":"0","num_feature":"50","num_nodes":"7","size_leaf_vector":"1"}},{"base_weights":[2.1590497E-3,-6.0528982E-2,1.1068768E-1,7.767662E-2,-2.9598543E-2],"categories":[],"categories_nodes":[],"categories_segments":[],"categories_sizes":[],"default_left":[0,0,0,0,0],"id":34,"left_children":[1,-1,3,-1,-1],"loss_changes":[1.4160384E-1,0E0,1.547365E-1,0E0,0E0],"parents":[2147483647,0,0,2,2],"right_children":[2,-1,4,-1,-1],"split_conditions":[-4.280582E-1,-6.0528982E-2,3.6005285E-1,7.767662E-2,-2.9598543E-2],"split_indices":[43,0,32,0,0],"split_type":[0,0,0,0,0],"sum_hessian":[4.389224E0,1.2261823E0,3.1630418E0,1.7131888E0,1.4498531E0],"tree_param":{"num_deleted":"0","num_feature":"50","num_nodes":"5","size_leaf_vector":"1"}},{"base_weights":[-6.546578E-4,9.887149E-2,-6.450477E-2,7.9877414E-2,-3.6544282E-2],"categories":[],"categories_nodes":[],"categories_segments":[],"categories_sizes":[],"default_left":[0,0,0,0,0],"id":35,"left_children":[1,3,-1,-1,-1],"loss_changes":[1.347294E-1,1.9191161E-1,0E0,0E0,0E0],"parents":[2147483647,0,0,1,1],"right_children":[2,4,-1,-1,-1],"split_conditions":[7.298528E-1,7.441042E-2,-6.450477E-2,7.9877414E-2,-3.6544282E-2],"split_indices":[36,10,0,0,0],"split_type":[0,0,0,0,0],"sum_hessian":[4.3186245E0,3.317226E0,1.0013983E0,1.7689804E0,1.5482457E0],"tree_param":{"num_deleted":"0","num_feature":"50","num_nodes":"5","size_leaf_vector":"1"}},{"base_weights":[-4.3357885E-3,1.0701783E-1,-5.4498345E-2,7.5651795E-2,-4.4655748E-2],"categories":[],"categories_nodes":[],"categories_segments":[],"categories_sizes":[],"default_left":[0,0,0,0,0],"id":36,"left_children":[1,3,-1,-1,-1],"loss_changes":[1.2297544E-1,1.8053222E-1,0E0,0E0,0E0],"parents":[2147483647,0,0,1,1],"right_children":[2,4,-1,-1,-1],"split_conditions":[4.0891922E-1,2.3825862E-1,-5.4498345E-2,7.5651795E-2,-4.4655748E-2],"split_indices":[9,42,0,0,0],"split_type":[0,0,0,0,0],"sum_hessian":[4.24336E0,2.8500962E0,1.3932638E0,1.8276976E0,1.0223987E0],"tree_param":{"num_deleted":"0","num_feature":"50","num_nodes":"5","size_leaf_vector":"1"}},{"base_weights":[-7.473199E-3,1.2739904E-1,-4.889042E-2,-4.5308642E-2,9.3557924E-2],"categories":[],"categories_nodes":[],"categories_segments":[],"categories_sizes":[],"default_left":[0,0,0,0,0],"id":37,"left_children":[1,3,-1,-1,-1],"loss_changes":[1.2931035E-1,2.1827899E-1,0E0,0E0,0E0],"parents":[2147483647,0,0,1,1],"right_children":[2,4,-1,-1,-1],"split_conditions":[1.3618697E-1,2.1142025E-1,-4.889042E-2,-4.5308642E-2,9.3557924E-2],"split_indices":[18,0,0,0,0],"split_type":[0,0,0,0,0],"sum_hessian":[4.175886E0,2.332994E0,1.8428924E0,1.0019206E0,1.3310734E0],"tree_param":{"num_deleted":"0","num_feature":"50","num_nodes":"5","size_leaf_vector":"1"}},{"base_weights":[-5.0934833E-3,1.3100444E-1,-4.5011554E-2,-3.741389E-2,9.687308E-2],"categories":[],"categories_nodes":[],"categories_segments":[],"categories_sizes":[],"default_left":[0,0,0,0,0],"id":38,"left_children":[1,3,-1,-1,-1],"loss_changes":[1.2014908E-1,1.9540201E-1,0E0,0E0,0E0],"parents":[2147483647,0,0,1,1],"right_children":[2,4,-1,-1,-1],"split_conditions":[7.991544E-2,-9.9009834E-2,-4.5011554E-2,-3.741389E-2,9.687308E-2],"split_indices":[31,21,0,0,0],"split_type":[0,0,0,0,0],"sum_hessian":[4.0942783E0,2.1611853E0,1.9330931E0,1.0766574E0,1.0845277E0],"tree_param":{"num_deleted":"0","num_feature":"50","num_nodes":"5","size_leaf_vector":"1"}},{"base_weights":[-3.5229803E-4,-1.1613697E-1,4.8053835E-2,-7.484043E-2,3.1215774E-2],"categories":[],"categories_nodes":[],"categories_segments":[],"categories_sizes":[],"default_left":[0,0,0,0,0],"id":39,"left_children":[1,3,-1,-1,-1],"loss_changes":[1.1191495E-1,1.286032E-1,0E0,0E0,0E0],"parents":[2147483647,0,0,1,1],"right_children":[2,4,-1,-1,-1],"split_conditions":[9.308816E-2,3.9001256E-1,4.8053835E-2,-7.484043E-2,3.1215774E-2],"split_indices":[47,24,0,0,0],"split_type":[0,0,0,0,0],"sum_hessian":[4.0202627E0,2.4963212E0,1.5239414E0,1.4720082E0,1.024313E0],"tree_param":{"num_deleted":"0","num_feature":"50","num_nodes":"5","size_leaf_vector":"1"}},{"base_weights":[4.4193247E-4,-9.9085666E-2,5.7332613E-2,3.1474646E-2,-8.790697E-2],"categories":[],"categories_nodes":[],"categories_segments":[],"categories_sizes":[],"default_left":[0,0,0,0,0],"id":40,"left_children":[1,3,-1,-1,-1],"loss_changes":[1.1314536E-1,1.8584663E-1,0E0,0E0,0E0],"parents":[2147483647,0,0,1,1],"right_children":[2,4,-1,-1,-1],"split_conditions":[6.3401043E-1,-2.7737847E-2,5.7332613E-2,3.1474646E-2,-8.790697E-2],"split_indices":[34,29,0,0,0],"split_type":[0,0,0,0,0],"sum_hessian":[3.964493E0,2.920381E0,1.0441118E0,1.6469715E0,1.2734097E0],"tree_param":{"num_deleted":"0","num_feature":"50","num_nodes":"5","size_leaf_vector":"1"}},{"base_weights":[1.7764307E-4,-1.1193095E-1,4.7016326E-2,1.7817108E-2,-7.839778E-2],"categories":[],"categories_nodes":[],"categories_segments":[],"categories_sizes":[],"default_left":[0,0,0,0,0],"id":41,"left_children":[1,3,-1,-1,-1],"loss_changes":[1.03411175E-1,1.0342302E-1,0E0,0E0,0E0],"parents":[2147483647,0,0,1,1],"right_children":[2,4,-1,-1,-1],"split_conditions":[4.7142744E-1,2.8107378E-1,4.7016326E-2,1.7817108E-2,-7.839778E-2],"split_indices":[33,15,0,0,0],"split_type":[0,0,0,0,0],"sum_hessian":[3.8928716E0,2.4344354E0,1.4584363E0,1.4146366E0,1.0197988E0],"tree_param":{"num_deleted":"0","num_feature":"50","num_nodes":"5","size_leaf_vector":"1"}},{"base_weights":[-2.8950379E-3,-4.160783E-2,3.804494E-2],"categories":[],"categories_nodes":[],"categories_segments":[],"categories_sizes":[],"default_left":[0,0,0],"id":42,"left_children":[1,-1,-1],"loss_changes":[1.0289031E-1,0E0,0E0],"parents":[2147483647,0,0],"right_children":[2,-1,-1],"split_conditions":[-4.3585543E-2,-4.160783E-2,3.804494E-2],"split_indices":[11,0,0],"split_type":[0,0,0],"sum_hessian":[3.8426957E0,1.8434787E0,1.9992172E0],"tree_param":{"num_deleted":"0","num_feature":"50","num_nodes":"3","size_leaf_vector":"1"}},{"base_weights":[-2.7939505E-3,-5.598183E-2,9.543551E-2,8.867943E-2,-3.327834E-2],"categories":[],"categories_nodes":[],"categories_segments":[],"categories_sizes":[],"default_left":[0,0,0,0,0],"id":43,"left_children":[1,-1,3,-1,-1],"loss_changes":[1.0482696E-1,0E0,1.8985814E-1,0E0,0E0],"parents":[2147483647,0,0,2,2],"right_children":[2,-1,4,-1,-1],"split_conditions":[-5.5848175E-1,-5.598183E-2,3.6005285E-1,8.867943E-2,-3.327834E-2],"split_indices":[32,0,32,0,0],"split_type":[0,0,0,0,0],"sum_hessian":[3.8194075E0,1.0168773E0,2.8025303E0,1.2031329E0,1.5993974E0],"tree_param":{"num_deleted":"0","num_feature":"50","num_nodes":"5","size_leaf_vector":"1"}},{"base_weights":[-1.8183738E-3,3.915386E-2,-1.2172831E-1,-6.7055434E-2,1.2115697E-2],"categories":[],"categories_nodes":[],"categories_segments":[],"categories_sizes":[],"default_left":[0,0,0,0,0],"id":44,"left_children":[1,-1,3,-1,-1],"loss_changes":[9.1268405E-2,0E0,5.8691103E-2,0E0,0E0],"parents":[2147483647,0,0,2,2],"right_children":[2,-1,4,-1,-1],"split_conditions":[2.5800986E-2,3.915386E-2,1.0755527E-2,-6.7055434E-2,1.2115697E-2],"split_indices":[22,0,44,0,0],"split_type":[0,0,0,0,0],"sum_hessian":[3.7505736E0,1.7409056E0,2.0096679E0,1.0018467E0,1.0078213E0],"tree_param":{"num_deleted":"0","num_feature":"50","num_nodes":"5","size_leaf_vector":"1"}},{"base_weights":[-4.771889E-3,-4.50773E-2,1.0104074E-1,-2.4256922E-2,6.912509E-2],"categories":[],"categories_nodes":[],"categories_segments":[],"categories_sizes":[],"default_left":[0,0,0,0,0],"id":45,"left_children":[1,-1,3,-1,-1],"loss_changes":[8.774785E-2,0E0,9.692387E-2,0E0,0E0],"parents":[2147483647,0,0,2,2],"right_children":[2,-1,4,-1,-1],"split_conditions":[-1.9437739E-1,-4.50773E-2,-1.5384912E-2,-2.4256922E-2,6.912509E-2],"split_indices":[8,0,19,0,0],"split_type":[0,0,0,0,0],"sum_hessian":[3.7138245E0,1.3868952E0,2.3269293E0,1.1230295E0,1.2039E0],"tree_param":{"num_deleted":"0","num_feature":"50","num_nodes":"5","size_leaf_vector":"1"}},{"base_weights":[-3.2916304E-3,1.0911725E-1,-4.0741563E-2,7.778565E-2,-3.0170662E-2],"categories":[],"categories_nodes":[],"categories_segments":[],"categories_sizes":[],"default_left":[0,0,0,0,0],"id":46,"left_children":[1,3,-1,-1,-1],"loss_changes":[8.439016E-2,1.2310575E-1,0E0,0E0,0E0],"parents":[2147483647,0,0,1,1],"right_children":[2,4,-1,-1,-1],"split_conditions":[1.3618697E-1,1.4198866E-1,-4.0741563E-2,7.778565E-2,-3.0170662E-2],"split_indices":[18,46,0,0,0],"split_type":[0,0,0,0,0],"sum_hessian":[3.670573E0,2.081463E0,1.5891097E0,1.0750309E0,1.0064323E0],"tree_param":{"num_deleted":"0","num_feature":"50","num_nodes":"5","size_leaf_vector":"1"}},{"base_weights":[-6.4303726E-4,-4.7695562E-2,8.723396E-2,7.435088E-2,-3.5505902E-2],"categories":[],"categories_nodes":[],"categories_segments":[],"categories_sizes":[],"default_left":[0,0,0,0,0],"id":47,"left_children":[1,-1,3,-1,-1],"loss_changes":[7.819373E-2,0E0,1.4881064E-1,0E0,0E0],"parents":[2147483647,0,0,2,2],"right_children":[2,-1,4,-1,-1],"split_conditions":[-4.280582E-1,-4.7695562E-2,-4.231473E-2,7.435088E-2,-3.5505902E-2],"split_indices":[43,0,23,0,0],"split_type":[0,0,0,0,0],"sum_hessian":[3.622819E0,1.004204E0,2.618615E0,1.3547744E0,1.2638407E0],"tree_param":{"num_deleted":"0","num_feature":"50","num_nodes":"5","size_leaf_vector":"1"}},{"base_weights":[-2.2101654E-3,-3.7084613E-2,3.3336625E-2],"categories":[],"categories_nodes":[],"categories_segments":[],"categories_sizes":[],"default_left":[0,0,0],"id":48,"left_children":[1,-1,-1],"loss_changes":[7.6567374E-2,0E0,0E0],"parents":[2147483647,0,0],"right_children":[2,-1,-1],"split_conditions":[-4.3585543E-2,-3.7084613E-2,3.3336625E-2],"split_indices":[11,0,0],"split_type":[0,0,0],"sum_hessian":[3.5664957E0,1.6781124E0,1.8883833E0],"tree_param":{"num_deleted":"0","num_feature":"50","num_nodes":"3","size_leaf_vector":"1"}},{"base_weights":[-2.3910552E-3,3.5656903E-2,-3.402087E-2],"categories":[],"categories_nodes":[],"categories_segments":[],"categories_sizes":[],"default_left":[0,0,0],"id":49,"left_children":[1,-1,-1],"loss_changes":[7.470369E-2,0E0,0E0],"parents":[2147483647,0,0],"right_children":[2,-1,-1],"split_conditions":[-1.13050655E-1,3.5656903E-2,-3.402087E-2],"split_indices":[10,0,0],"split_type":[0,0,0],"sum_hessian":[3.5487003E0,1.6623806E0,1.8863196E0],"tree_param":{"num_deleted":"0","num_feature":"50","num_nodes":"3","size_leaf_vector":"1"}},{"base_weights":[-1.3219102E-3,-1.0507767E-1,3.960399E-2,-6.685892E-2,1.7455822E-2],"categories":[],"categories_nodes":[],"categories_segments":[],"categories_sizes":[],"default_left":[0,0,0,0,0],"id":50,"left_children":[1,3,-1,-1,-1],"loss_changes":[7.654958E-2,7.2671816E-2,0E0,0E0,0E0],"parents":[2147483647,0,0,1,1],"right_children":[2,4,-1,-1,-1],"split_conditions":[4.0420237E-1,-1.0250892E-1,3.960399E-2,-6.685892E-2,1.7455822E-2],"split_indices":[12,21,0,0,0],"split_type":[0,0,0,0,0],"sum_hessian":[3.5306199E0,2.1047342E0,1.4258856E0,1.0105972E0,1.0941371E0],"tree_param":{"num_deleted":"0","num_feature":"50","num_nodes":"5","size_leaf_vector":"1"}},{"base_weights":[-3.2534807E-3,3.6223937E-2,-3.4751903E-2],"categories":[],"categories_nodes":[],"categories_segments":[],"categories_sizes":[],"default_left":[0,0,0],"id":51,"left_children":[1,-1,-1],"loss_changes":[7.674204E-2,0E0,0E0],"parents":[2147483647,0,0],"right_children":[2,-1,-1],"split_conditions":[2.5800986E-2,3.6223937E-2,-3.4751903E-2],"split_indices":[22,0,0],"split_type":[0,0,0],"sum_hessian":[3.4951112E0,1.6287557E0,1.8663557E0],"tree_param":{"num_deleted":"0","num_feature":"50","num_nodes":"3","size_leaf_vector":"1"}},{"base_weights":[-1.961497E-3,8.8181E-2,-4.3368705E-2,7.1033925E-2,-3.8881794E-2],"categories":[],"categories_nodes":[],"categories_segments":[],"categories_sizes":[],"default_left":[0,0,0,0,0],"id":52,"left_children":[1,3,-1,-1,-1],"loss_changes":[7.028894E-2,1.3954993E-1,0E0,0E0,0E0],"parents":[2147483647,0,0,1,1],"right_children":[2,4,-1,-1,-1],"split_conditions":[4.900173E-1,1.9315165E-1,-4.3368705E-2,7.1033925E-2,-3.8881794E-2],"split_indices":[36,27,0,0,0],"split_type":[0,0,0,0,0],"sum_hessian":[3.4763901E0,2.3637886E0,1.1126016E0,1.3532448E0,1.0105437E0],"tree_param":{"num_deleted":"0","num_feature":"50","num_nodes":"5","size_leaf_vector":"1"}},{"base_weights":[-3.7694622E-3,-8.9635715E-2,4.2887826E-2,3.0767035E-2,-7.396794E-2],"categories":[],"categories_nodes":[],"categories_segments":[],"categories_sizes":[],"default_left":[0,0,0,0,0],"id":53,"left_children":[1,3,-1,-1,-1],"loss_changes":[6.859799E-2,1.2806176E-1,0E0,0E0,0E0],"parents":[2147483647,0,0,1,1],"right_children":[2,4,-1,-1,-1],"split_conditions":[5.2010185E-1,-3.7412658E-1,4.2887826E-2,3.0767035E-2,-7.396794E-2],"split_indices":[34,34,0,0,0],"split_type":[0,0,0,0,0],"sum_hessian":[3.4276094E0,2.4077137E0,1.0198959E0,1.2379692E0,1.1697445E0],"tree_param":{"num_deleted":"0","num_feature":"50","num_nodes":"5","size_leaf_vector":"1"}},{"base_weights":[-2.9477656E-3,-9.956944E-2,3.954862E-2,-5.669664E-2,1.2977034E-2],"categories":[],"categories_nodes":[],"categories_segments":[],"categories_sizes":[],"default_left":[0,0,0,0,0],"id":54,"left_children":[1,3,-1,-1,-1],"loss_changes":[7.017541E-2,4.8038803E-2,0E0,0E0,0E0],"parents":[2147483647,0,0,1,1],"right_children":[2,4,-1,-1,-1],"split_conditions":[9.308816E-2,1.7090121E-1,3.954862E-2,-5.669664E-2,1.2977034E-2],"split_indices":[47,35,0,0,0],"split_type":[0,0,0,0,0],"sum_hessian":[3.3808823E0,2.121324E0,1.2595582E0,1.1058042E0,1.0155197E0],"tree_param":{"num_deleted":"0","num_feature":"50","num_nodes":"5","size_leaf_vector":"1"}},{"base_weights":[-3.1155031E-3,8.755734E-2,-4.1292977E-2,6.343615E-2,-2.2553943E-2],"categories":[],"categories_nodes":[],"categories_segments":[],"categories_sizes":[],"default_left":[0,0,0,0,0],"id":55,"left_children":[1,3,-1,-1,-1],"loss_changes":[6.51481E-2,8.06486E-2,0E0,0E0,0E0],"parents":[2147483647,0,0,1,1],"right_children":[2,4,-1,-1,-1],"split_conditions":[4.0891922E-1,7.441042E-2,-4.1292977E-2,6.343615E-2,-2.2553943E-2],"split_indices":[9,10,0,0,0],"split_type":[0,0,0,0,0],"sum_hessian":[3.3528755E0,2.2114737E0,1.1414016E0,1.0856097E0,1.125864E0],"tree_param":{"num_deleted":"0","num_feature":"50","num_nodes":"5","size_leaf_vector":"1"}},{"base_weights":[-2.187473E-3,4.221848E-2,-8.842543E-2,2.4601487E-2,-5.990259E-2],"categories":[],"categories_nodes":[],"categories_segments":[],"categories_sizes":[],"default_left":[0,0,0,0,0],"id":56,"left_children":[1,-1,3,-1,-1],"loss_changes":[6.5653525E-2,0E0,7.907012E-2,0E0,0E0],"parents":[2147483647,0,0,2,2],"right_children":[2,-1,4,-1,-1],"split_conditions":[-5.096074E-1,4.221848E-2,-3.8041773E-1,2.4601487E-2,-5.990259E-2],"split_indices":[19,0,36,0,0],"split_type":[0,0,0,0,0],"sum_hessian":[3.31729E0,1.0106144E0,2.3066757E0,1.0148467E0,1.2918291E0],"tree_param":{"num_deleted":"0","num_feature":"50","num_nodes":"5","size_leaf_vector":"1"}},{"base_weights":[-3.744829E-5,3.269023E-2,-3.4018677E-2],"categories":[],"categories_nodes":[],"categories_segments":[],"categories_sizes":[],"default_left":[0,0,0],"id":57,"left_children":[1,-1,-1],"loss_changes":[6.526523E-2,0E0,0E0],"parents":[2147483647,0,0],"right_children":[2,-1,-1],"split_conditions":[7.991544E-2,3.269023E-2,-3.4018677E-2],"split_indices":[31,0,0],"split_type":[0,0,0],"sum_hessian":[3.2818296E0,1.6927851E0,1.5890445E0],"tree_param":{"num_deleted":"0","num_feature":"50","num_nodes":"3","size_leaf_vector":"1"}},{"base_weights":[-3.451054E-4,-8.9739546E-2,3.9584097E-2,2.054457E-2,-5.9942853E-2],"categories":[],"categories_nodes":[],"categories_segments":[],"categories_sizes":[],"default_left":[0,0,0,0,0],"id":58,"left_children":[1,3,-1,-1,-1],"loss_changes":[6.2291563E-2,6.8384424E-2,0E0,0E0,0E0],"parents":[2147483647,0,0,1,1],"right_children":[2,4,-1,-1,-1],"split_conditions":[4.7136903E-1,-4.231473E-2,3.9584097E-2,2.054457E-2,-5.9942853E-2],"split_indices":[24,23,0,0,0],"split_type":[0,0,0,0,0],"sum_hessian":[3.2660196E0,2.140956E0,1.1250637E0,1.0333652E0,1.1075908E0],"tree_param":{"num_deleted":"0","num_feature":"50","num_nodes":"5","size_leaf_vector":"1"}},{"base_weights":[-3.08556E-4,-2.92888E-2,3.685895E-2],"categories":[],"categories_nodes":[],"categories_segments":[],"categories_sizes":[],"default_left":[0,0,0],"id":59,"left_children":[1,-1,-1],"loss_changes":[6.274176E-2,0E0,0E0],"parents":[2147483647,0,0],"right_children":[2,-1,-1],"split_conditions":[4.0420237E-1,-2.92888E-2,3.685895E-2],"split_indices":[12,0,0],"split_type":[0,0,0],"sum_hessian":[3.2334194E0,1.9220982E0,1.3113214E0],"tree_param":{"num_deleted":"0","num_feature":"50","num_nodes":"3","size_leaf_vector":"1"}},{"base_weights":[1.5875543E-3,-8.838213E-2,4.033527E-2,2.8663905E-2,-6.610744E-2],"categories":[],"categories_nodes":[],"categories_segments":[],"categories_sizes":[],"default_left":[0,0,0,0,0],"id":60,"left_children":[1,3,-1,-1,-1],"loss_changes":[6.230563E-2,9.675176E-2,0E0,0E0,0E0],"parents":[2147483647,0,0,1,1],"right_children":[2,4,-1,-1,-1],"split_conditions":[3.9862323E-1,-2.7908978E-1,4.033527E-2,2.8663905E-2,-6.610744E-2],"split_indices":[34,2,0,0,0],"split_type":[0,0,0,0,0],"sum_hessian":[3.2181656E0,2.1184356E0,1.0997298E0,1.0003413E0,1.1180944E0],"tree_param":{"num_deleted":"0","num_feature":"50","num_nodes":"5","size_leaf_vector":"1"}},{"base_weights":[1.6620344E-3,-8.974199E-2,4.0019114E-2,-6.342292E-2,2.1957174E-2],"categories":[],"categories_nodes":[],"categories_segments":[],"categories_sizes":[],"default_left":[0,0,0,0,0],"id":61,"left_children":[1,3,-1,-1,-1],"loss_changes":[6.2289383E-2,7.6230645E-2,0E0,0E0,0E0],"parents":[2147483647,0,0,1,1],"right_children":[2,4,-1,-1,-1],"split_conditions":[3.458848E-1,-1.2482925E-1,4.0019114E-2,-6.342292E-2,2.1957174E-2],"split_indices":[41,39,0,0,0],"split_type":[0,0,0,0,0],"sum_hessian":[3.1788561E0,2.0648994E0,1.1139567E0,1.0118128E0,1.0530865E0],"tree_param":{"num_deleted":"0","num_feature":"50","num_nodes":"5","size_leaf_vector":"1"}},{"base_weights":[6.9571554E-4,-3.641369E-2,2.6776994E-2],"categories":[],"categories_nodes":[],"categories_segments":[],"categories_sizes":[],"default_left":[0,0,0],"id":62,"left_children":[1,-1,-1],"loss_changes":[5.5647884E-2,0E0,0E0],"parents":[2147483647,0,0],"right_children":[2,-1,-1],"split_conditions":[-1.9437739E-1,-3.641369E-2,2.6776994E-2],"split_indices":[8,0,0],"split_type":[0,0,0],"sum_hessian":[3.1452057E0,1.1665848E0,1.9786209E0],"tree_param":{"num_deleted":"0","num_feature":"50","num_nodes":"3","size_leaf_vector":"1"}},{"base_weights":[-1.8638114E-3,-3.1715885E-2,2.9467365E-2],"categories":[],"categories_nodes":[],"categories_segments":[],"categories_sizes":[],"default_left":[0,0,0],"id":63,"left_children":[1,-1,-1],"loss_changes":[5.333279E-2,0E0,0E0],"parents":[2147483647,0,0],"right_children":[2,-1,-1],"split_conditions":[9.228408E-2,-3.1715885E-2,2.9467365E-2],"split_indices":[25,0,0],"split_type":[0,0,0],"sum_hessian":[3.1317499E0,1.5093368E0,1.622413E0],"tree_param":{"num_deleted":"0","num_feature":"50","num_nodes":"3","size_leaf_vector":"1"}},{"base_weights":[-1.8624163E-3,-2.6152872E-2,3.587283E-2],"categories":[],"categories_nodes":[],"categories_segments":[],"categories_sizes":[],"default_left":[0,0,0],"id":64,"left_children":[1,-1,-1],"loss_changes":[5.3100694E-2,0E0,0E0],"parents":[2147483647,0,0],"right_children":[2,-1,-1],"split_conditions":[3.234132E-1,-2.6152872E-2,3.587283E-2],"split_indices":[14,0,0],"split_type":[0,0,0],"sum_hessian":[3.119201E0,1.9978173E0,1.1213837E0],"tree_param":{"num_deleted":"0","num_feature":"50","num_nodes":"3","size_leaf_vector":"1"}},{"base_weights":[1.0708182E-3,-2.5281439E-2,3.6621545E-2],"categories":[],"categories_nodes":[],"categories_segments":[],"categories_sizes":[],"default_left":[0,0,0],"id":65,"left_children":[1,-1,-1],"loss_changes":[5.2692764E-2,0E0,0E0],"parents":[2147483647,0,0],"right_children":[2,-1,-1],"split_conditions":[4.3654475E-1,-2.5281439E-2,3.6621545E-2],"split_indices":[48,0,0],"split_type":[0,0,0],"sum_hessian":[3.1064825E0,1.9996629E0,1.1068196E0],"tree_param":{"num_deleted":"0","num_feature":"50","num_nodes":"3","size_leaf_vector":"1"}},{"base_weights":[3.5396223E-3,-2.5470722E-2,3.6322474E-2],"categories":[],"categories_nodes":[],"categories_segments":[],"categories_sizes":[],"default_left":[0,0,0],"id":66,"left_children":[1,-1,-1],"loss_changes":[5.282345E-2,0E0,0E0],"parents":[2147483647,0,0],"right_children":[2,-1,-1],"split_conditions":[4.7142744E-1,-2.5470722E-2,3.6322474E-2],"split_indices":[33,0,0],"split_type":[0,0,0],"sum_hessian":[3.0927036E0,1.9231957E0,1.1695079E0],"tree_param":{"num_deleted":"0","num_feature":"50","num_nodes":"3","size_leaf_vector":"1"}},{"base_weights":[5.161428E-3,2.8555708E-2,-3.0917864E-2],"categories":[],"categories_nodes":[],"categories_segments":[],"categories_sizes":[],"default_left":[0,0,0],"id":67,"left_children":[1,-1,-1],"loss_changes":[4.9555123E-2,0E0,0E0],"parents":[2147483647,0,0],"right_children":[2,-1,-1],"split_conditions":[1.3618697E-1,2.8555708E-2,-3.0917864E-2],"split_indices":[18,0,0],"split_type":[0,0,0],"sum_hessian":[3.0795767E0,1.7468771E0,1.3326995E0],"tree_param":{"num_deleted":"0","num_feature":"50","num_nodes":"3","size_leaf_vector":"1"}},{"base_weights":[3.0375982E-3,-7.897152E-2,3.6445152E-2,1.6408602E-2,-5.2101385E-2],"categories":[],"categories_nodes":[],"categories_segments":[],"categories_sizes":[],"default_left":[0,0,0,0,0],"id":68,"left_children":[1,3,-1,-1,-1],"loss_changes":[4.9105E-2,4.759419E-2,0E0,0E0,0E0],"parents":[2147483647,0,0,1,1],"right_children":[2,4,-1,-1,-1],"split_conditions":[3.9862323E-1,-4.8152894E-1,3.6445152E-2,1.6408602E-2,-5.2101385E-2],"split_indices":[34,34,0,0,0],"split_type":[0,0,0,0,0],"sum_hessian":[3.0675905E0,2.009521E0,1.0580693E0,1.0084906E0,1.0010304E0],"tree_param":{"num_deleted":"0","num_feature":"50","num_nodes":"5","size_leaf_vector":"1"}},{"base_weights":[2.260167E-3,-2.3955632E-2,3.6148127E-2],"categories":[],"categories_nodes":[],"categories_segments":[],"categories_sizes":[],"default_left":[0,0,0],"id":69,"left_children":[1,-1,-1],"loss_changes":[4.887777E-2,0E0,0E0],"parents":[2147483647,0,0],"right_children":[2,-1,-1],"split_conditions":[4.7136903E-1,-2.3955632E-2,3.6148127E-2],"split_indices":[24,0,0],"split_type":[0,0,0],"sum_hessian":[3.043506E0,1.9876933E0,1.0558127E0],"tree_param":{"num_deleted":"0","num_feature":"50","num_nodes":"3","size_leaf_vector":"1"}},{"base_weights":[4.629274E-3,3.0342005E-2,-2.8032767E-2],"categories":[],"categories_nodes":[],"categories_segments":[],"categories_sizes":[],"default_left":[0,0,0],"id":70,"left_children":[1,-1,-1],"loss_changes":[4.760351E-2,0E0,0E0],"parents":[2147483647,0,0],"right_children":[2,-1,-1],"split_conditions":[7.305133E-2,3.0342005E-2,-2.8032767E-2],"split_indices":[3,0,0],"split_type":[0,0,0],"sum_hessian":[3.0309339E0,1.511857E0,1.5190768E0],"tree_param":{"num_deleted":"0","num_feature":"50","num_nodes":"3","size_leaf_vector":"1"}},{"base_weights":[3.8259428E-3,3.166039E-2,-2.7649472E-2],"categories":[],"categories_nodes":[],"categories_segments":[],"categories_sizes":[],"default_left":[0,0,0],"id":71,"left_children":[1,-1,-1],"loss_changes":[4.896947E-2,0E0,0E0],"parents":[2147483647,0,0],"right_children":[2,-1,-1],"split_conditions":[-1.13050655E-1,3.166039E-2,-2.7649472E-2],"split_indices":[10,0,0],"split_type":[0,0,0],"sum_hessian":[3.01951E0,1.417816E0,1.601694E0],"tree_param":{"num_deleted":"0","num_feature":"50","num_nodes":"3","size_leaf_vector":"1"}},{"base_weights":[3.6918544E-3,2.4680652E-2,-3.4467824E-2],"categories":[],"categories_nodes":[],"categories_segments":[],"categories_sizes":[],"default_left":[0,0,0],"id":72,"left_children":[1,-1,-1],"loss_changes":[4.679205E-2,0E0,0E0],"parents":[2147483647,0,0],"right_children":[2,-1,-1],"split_conditions":[4.0891922E-1,2.4680652E-2,-3.4467824E-2],"split_indices":[9,0,0],"split_type":[0,0,0],"sum_hessian":[3.007285E0,1.9929513E0,1.0143337E0],"tree_param":{"num_deleted":"0","num_feature":"50","num_nodes":"3","size_leaf_vector":"1"}},{"base_weights":[1.2571542E-4,-2.5849793E-2,3.225706E-2],"categories":[],"categories_nodes":[],"categories_segments":[],"categories_sizes":[],"default_left":[0,0,0],"id":73,"left_children":[1,-1,-1],"loss_changes":[4.6296302E-2,0E0,0E0],"parents":[2147483647,0,0],"right_children":[2,-1,-1],"split_conditions":[4.0420237E-1,-2.5849793E-2,3.225706E-2],"split_indices":[12,0,0],"split_type":[0,0,0],"sum_hessian":[2.995821E0,1.7707542E0,1.2250668E0],"tree_param":{"num_deleted":"0","num_feature":"50","num_nodes":"3","size_leaf_vector":"1"}},{"base_weights":[1.7030962E-3,-2.3000786E-2,3.4473415E-2],"categories":[],"categories_nodes":[],"categories_segments":[],"categories_sizes":[],"default_left":[0,0,0],"id":74,"left_children":[1,-1,-1],"loss_changes":[4.4161513E-2,0E0,0E0],"parents":[2147483647,0,0],"right_children":[2,-1,-1],"split_conditions":[3.458848E-1,-2.3000786E-2,3.4473415E-2],"split_indices":[41,0,0],"split_type":[0,0,0],"sum_hessian":[2.9844153E0,1.9542658E0,1.0301495E0],"tree_param":{"num_deleted":"0","num_feature":"50","num_nodes":"3","size_leaf_vector":"1"}},{"base_weights":[4.09642E-3,-2.3221748E-2,3.5959896E-2],"categories":[],"categories_nodes":[],"categories_segments":[],"categories_sizes":[],"default_left":[0,0,0],"id":75,"left_children":[1,-1,-1],"loss_changes":[4.677254E-2,0E0,0E0],"parents":[2147483647,0,0],"right_children":[2,-1,-1],"split_conditions":[3.9862323E-1,-2.3221748E-2,3.5959896E-2],"split_indices":[34,0,0],"split_type":[0,0,0],"sum_hessian":[2.9737332E0,1.9396194E0,1.0341139E0],"tree_param":{"num_deleted":"0","num_feature":"50","num_nodes":"3","size_leaf_vector":"1"}},{"base_weights":[6.110468E-3,-2.834322E-2,2.8559284E-2],"categories":[],"categories_nodes":[],"categories_segments":[],"categories_sizes":[],"default_left":[0,0,0],"id":76,"left_children":[1,-1,-1],"loss_changes":[4.4494145E-2,0E0,0E0],"parents":[2147483647,0,0],"right_children":[2,-1,-1],"split_conditions":[-1.0250892E-1,-2.834322E-2,2.8559284E-2],"split_indices":[21,0,0],"split_type":[0,0,0],"sum_hessian":[2.9615877E0,1.3625894E0,1.5989983E0],"tree_param":{"num_deleted":"0","num_feature":"50","num_nodes":"3","size_leaf_vector":"1"}},{"base_weights":[4.3431595E-3,-2.3208339E-2,3.396924E-2],"categories":[],"categories_nodes":[],"categories_segments":[],"categories_sizes":[],"default_left":[0,0,0],"id":77,"left_children":[1,-1,-1],"loss_changes":[4.390542E-2,0E0,0E0],"parents":[2147483647,0,0],"right_children":[2,-1,-1],"split_conditions":[9.308816E-2,-2.3208339E-2,3.396924E-2],"split_indices":[47,0,0],"split_type":[0,0,0],"sum_hessian":[2.9504766E0,1.8510592E0,1.0994174E0],"tree_param":{"num_deleted":"0","num_feature":"50","num_nodes":"3","size_leaf_vector":"1"}},{"base_weights":[5.793517E-3,2.9290142E-2,-2.7271977E-2],"categories":[],"categories_nodes":[],"categories_segments":[],"categories_sizes":[],"default_left":[0,0,0],"id":78,"left_children":[1,-1,-1],"loss_changes":[4.386472E-2,0E0,0E0],"parents":[2147483647,0,0],"right_children":[2,-1,-1],"split_conditions":[7.991544E-2,2.9290142E-2,-2.7271977E-2],"split_indices":[31,0,0],"split_type":[0,0,0],"sum_hessian":[2.939794E0,1.5028328E0,1.4369613E0],"tree_param":{"num_deleted":"0","num_feature":"50","num_nodes":"3","size_leaf_vector":"1"}},{"base_weights":[4.581953E-3,-2.6852539E-2,2.8937703E-2],"categories":[],"categories_nodes":[],"categories_segments":[],"categories_sizes":[],"default_left":[0,0,0],"id":79,"left_children":[1,-1,-1],"loss_changes":[4.259814E-2,0E0,0E0],"parents":[2147483647,0,0],"right_children":[2,-1,-1],"split_conditions":[1.3261455E-1,-2.6852539E-2,2.8937703E-2],"split_indices":[48,0,0],"split_type":[0,0,0],"sum_hessian":[2.928887E0,1.4597504E0,1.4691365E0],"tree_param":{"num_deleted":"0","num_feature":"50","num_nodes":"3","size_leaf_vector":"1"}},{"base_weights":[3.7497627E-3,2.5789326E-2,-2.919806E-2],"categories":[],"categories_nodes":[],"categories_segments":[],"categories_sizes":[],"default_left":[0,0,0],"id":80,"left_children":[1,-1,-1],"loss_changes":[4.0926296E-2,0E0,0E0],"parents":[2147483647,0,0],"right_children":[2,-1,-1],"split_conditions":[2.4804452E-1,2.5789326E-2,-2.919806E-2],"split_indices":[1,0,0],"split_type":[0,0,0],"sum_hessian":[2.9181383E0,1.6916667E0,1.2264715E0],"tree_param":{"num_deleted":"0","num_feature":"50","num_nodes":"3","size_leaf_vector":"1"}},{"base_weights":[1.7529762E-3,-2.786886E-2,2.6732076E-2],"categories":[],"categories_nodes":[],"categories_segments":[],"categories_sizes":[],"default_left":[0,0,0],"id":81,"left_children":[1,-1,-1],"loss_changes":[4.0593155E-2,0E0,0E0],"parents":[2147483647,0,0],"right_children":[2,-1,-1],"split_conditions":[4.6904355E-2,-2.786886E-2,2.6732076E-2],"split_indices":[44,0,0],"split_type":[0,0,0],"sum_hessian":[2.9085078E0,1.3655118E0,1.5429962E0],"tree_param":{"num_deleted":"0","num_feature":"50","num_nodes":"3","size_leaf_vector":"1"}},{"base_weights":[9.3480357E-4,2.9043538E-2,-2.4978232E-2],"categories":[],"categories_nodes":[],"categories_segments":[],"categories_sizes":[],"default_left":[0,0,0],"id":82,"left_children":[1,-1,-1],"loss_changes":[3.952969E-2,0E0,0E0],"parents":[2147483647,0,0],"right_children":[2,-1,-1],"split_conditions":[-6.834238E-2,2.9043538E-2,-2.4978232E-2],"split_indices":[17,0,0],"split_type":[0,0,0],"sum_hessian":[2.8983443E0,1.2851015E0,1.6132427E0],"tree_param":{"num_deleted":"0","num_feature":"50","num_nodes":"3","size_leaf_vector":"1"}},{"base_weights":[1.7039413E-3,-2.224105E-2,3.310387E-2],"categories":[],"categories_nodes":[],"categories_segments":[],"categories_sizes":[],"default_left":[0,0,0],"id":83,"left_children":[1,-1,-1],"loss_changes":[4.0224355E-2,0E0,0E0],"parents":[2147483647,0,0],"right_children":[2,-1,-1],"split_conditions":[3.9862323E-1,-2.224105E-2,3.310387E-2],"split_indices":[34,0,0],"split_type":[0,0,0],"sum_hessian":[2.88902E0,1.8883858E0,1.0006342E0],"tree_param":{"num_deleted":"0","num_feature":"50","num_nodes":"3","size_leaf_vector":"1"}},{"base_weights":[4.0098196E-3,-2.1624645E-2,3.227559E-2],"categories":[],"categories_nodes":[],"categories_segments":[],"categories_sizes":[],"default_left":[0,0,0],"id":84,"left_children":[1,-1,-1],"loss_changes":[3.8322464E-2,0E0,0E0],"parents":[2147483647,0,0],"right_children":[2,-1,-1],"split_conditions":[3.234132E-1,-2.1624645E-2,3.227559E-2],"split_indices":[14,0,0],"split_type":[0,0,0],"sum_hessian":[2.8785017E0,1.8346982E0,1.0438033E0],"tree_param":{"num_deleted":"0","num_feature":"50","num_nodes":"3","size_leaf_vector":"1"}},{"base_weights":[5.5784155E-3,-2.7238127E-2,2.6337072E-2],"categories":[],"categories_nodes":[],"categories_segments":[],"categories_sizes":[],"default_left":[0,0,0],"id":85,"left_children":[1,-1,-1],"loss_changes":[3.8625494E-2,0E0,0E0],"parents":[2147483647,0,0],"right_children":[2,-1,-1],"split_conditions":[-1.2482925E-1,-2.7238127E-2,2.6337072E-2],"split_indices":[39,0,0],"split_type":[0,0,0],"sum_hessian":[2.8691099E0,1.2727503E0,1.5963595E0],"tree_param":{"num_deleted":"0","num_feature":"50","num_nodes":"3","size_leaf_vector":"1"}},{"base_weights":[3.678447E-3,-2.6423875E-2,2.6877334E-2],"categories":[],"categories_nodes":[],"categories_segments":[],"categories_sizes":[],"default_left":[0,0,0],"id":86,"left_children":[1,-1,-1],"loss_changes":[3.8319897E-2,0E0,0E0],"parents":[2147483647,0,0],"right_children":[2,-1,-1],"split_conditions":[9.228408E-2,-2.6423875E-2,2.6877334E-2],"split_indices":[25,0,0],"split_type":[0,0,0],"sum_hessian":[2.8599603E0,1.3707376E0,1.4892228E0],"tree_param":{"num_deleted":"0","num_feature":"50","num_nodes":"3","size_leaf_vector":"1"}},{"base_weights":[2.6977006E-3,-3.1124003E-2,2.3454463E-2],"categories":[],"categories_nodes":[],"categories_segments":[],"categories_sizes":[],"default_left":[0,0,0],"id":87,"left_children":[1,-1,-1],"loss_changes":[3.905145E-2,0E0,0E0],"parents":[2147483647,0,0],"right_children":[2,-1,-1],"split_conditions":[-1.9437739E-1,-3.1124003E-2,2.3454463E-2],"split_indices":[8,0,0],"split_type":[0,0,0],"sum_hessian":[2.8507812E0,1.0274662E0,1.8233151E0],"tree_param":{"num_deleted":"0","num_feature":"50","num_nodes":"3","size_leaf_vector":"1"}},{"base_weights":[-1.15612806E-4,2.4040245E-2,-2.8610209E-2],"categories":[],"categories_nodes":[],"categories_segments":[],"categories_sizes":[],"default_left":[0,0,0],"id":88,"left_children":[1,-1,-1],"loss_changes":[3.7003268E-2,0E0,0E0],"parents":[2147483647,0,0],"right_children":[2,-1,-1],"split_conditions":[1.3618697E-1,2.4040245E-2,-2.8610209E-2],"split_indices":[18,0,0],"split_type":[0,0,0],"sum_hessian":[2.8410988E0,1.6281183E0,1.2129805E0],"tree_param":{"num_deleted":"0","num_feature":"50","num_nodes":"3","size_leaf_vector":"1"}},{"base_weights":[-1.2816848E-3,2.6411407E-2,-2.6866576E-2],"categories":[],"categories_nodes":[],"categories_segments":[],"categories_sizes":[],"default_left":[0,0,0],"id":89,"left_children":[1,-1,-1],"loss_changes":[3.809751E-2,0E0,0E0],"parents":[2147483647,0,0],"right_children":[2,-1,-1],"split_conditions":[7.305133E-2,2.6411407E-2,-2.6866576E-2],"split_indices":[3,0,0],"split_type":[0,0,0],"sum_hessian":[2.831946E0,1.4089583E0,1.4229877E0],"tree_param":{"num_deleted":"0","num_feature":"50","num_nodes":"3","size_leaf_vector":"1"}},{"base_weights":[-1.0218216E-3,2.74765E-2,-2.6097825E-2],"categories":[],"categories_nodes":[],"categories_segments":[],"categories_sizes":[],"default_left":[0,0,0],"id":90,"left_children":[1,-1,-1],"loss_changes":[3.8402803E-2,0E0,0E0],"parents":[2147483647,0,0],"right_children":[2,-1,-1],"split_conditions":[-1.13050655E-1,2.74765E-2,-2.6097825E-2],"split_indices":[10,0,0],"split_type":[0,0,0],"sum_hessian":[2.8226726E0,1.3274103E0,1.4952624E0],"tree_param":{"num_deleted":"0","num_feature":"50","num_nodes":"3","size_leaf_vector":"1"}},{"base_weights":[-3.5630248E-4,2.7310148E-2,-2.5819996E-2],"categories":[],"categories_nodes":[],"categories_segments":[],"categories_sizes":[],"default_left":[0,0,0],"id":91,"left_children":[1,-1,-1],"loss_changes":[3.7701778E-2,0E0,0E0],"parents":[2147483647,0,0],"right_children":[2,-1,-1],"split_conditions":[2.5800986E-2,2.7310148E-2,-2.5819996E-2],"split_indices":[22,0,0],"split_type":[0,0,0],"sum_hessian":[2.8129067E0,1.3312881E0,1.4816188E0],"tree_param":{"num_deleted":"0","num_feature":"50","num_nodes":"3","size_leaf_vector":"1"}},{"base_weights":[1.4124793E-4,-2.7895637E-2,2.554745E-2],"categories":[],"categories_nodes":[],"categories_segments":[],"categories_sizes":[],"default_left":[0,0,0],"id":92,"left_children":[1,-1,-1],"loss_changes":[3.803077E-2,0E0,0E0],"parents":[2147483647,0,0],"right_children":[2,-1,-1],"split_conditions":[1.457719E-1,-2.7895637E-2,2.554745E-2],"split_indices":[12,0,0],"split_type":[0,0,0],"sum_hessian":[2.803333E0,1.2931262E0,1.5102068E0],"tree_param":{"num_deleted":"0","num_feature":"50","num_nodes":"3","size_leaf_vector":"1"}},{"base_weights":[-5.25329E-4,-2.7095066E-2,2.4458356E-2],"categories":[],"categories_nodes":[],"categories_segments":[],"categories_sizes":[],"default_left":[0,0,0],"id":93,"left_children":[1,-1,-1],"loss_changes":[3.53158E-2,0E0,0E0],"parents":[2147483647,0,0],"right_children":[2,-1,-1],"split_conditions":[-4.3585543E-2,-2.7095066E-2,2.4458356E-2],"split_indices":[11,0,0],"split_type":[0,0,0],"sum_hessian":[2.7939277E0,1.2859687E0,1.507959E0],"tree_param":{"num_deleted":"0","num_feature":"50","num_nodes":"3","size_leaf_vector":"1"}},{"base_weights":[-1.070527E-3,-2.4098491E-2,2.7493611E-2],"categories":[],"categories_nodes":[],"categories_segments":[],"categories_sizes":[],"default_left":[0,0,0],"id":94,"left_children":[1,-1,-1],"loss_changes":[3.5177037E-2,0E0,0E0],"parents":[2147483647,0,0],"right_children":[2,-1,-1],"split_conditions":[3.044844E-1,-2.4098491E-2,2.7493611E-2],"split_indices":[7,0,0],"split_type":[0,0,0],"sum_hessian":[2.7851927E0,1.5736085E0,1.2115843E0],"tree_param":{"num_deleted":"0","num_feature":"50","num_nodes":"3","size_leaf_vector":"1"}},{"base_weights":[1.4945374E-4,-2.7143156E-2,2.4636775E-2],"categories":[],"categories_nodes":[],"categories_segments":[],"categories_sizes":[],"default_left":[0,0,0],"id":95,"left_children":[1,-1,-1],"loss_changes":[3.5485905E-2,0E0,0E0],"parents":[2147483647,0,0],"right_children":[2,-1,-1],"split_conditions":[-1.0250892E-1,-2.7143156E-2,2.4636775E-2],"split_indices":[21,0,0],"split_type":[0,0,0],"sum_hessian":[2.7765353E0,1.2693948E0,1.5071406E0],"tree_param":{"num_deleted":"0","num_feature":"50","num_nodes":"3","size_leaf_vector":"1"}},{"base_weights":[-5.6557026E-4,2.5032446E-2,-2.5485849E-2],"categories":[],"categories_nodes":[],"categories_segments":[],"categories_sizes":[],"default_left":[0,0,0],"id":96,"left_children":[1,-1,-1],"loss_changes":[3.379739E-2,0E0,0E0],"parents":[2147483647,0,0],"right_children":[2,-1,-1],"split_conditions":[7.991544E-2,2.5032446E-2,-2.5485849E-2],"split_indices":[31,0,0],"split_type":[0,0,0],"sum_hessian":[2.7675743E0,1.3925278E0,1.3750465E0],"tree_param":{"num_deleted":"0","num_feature":"50","num_nodes":"3","size_leaf_vector":"1"}},{"base_weights":[-5.2014645E-4,2.7545506E-2,-2.350656E-2],"categories":[],"categories_nodes":[],"categories_segments":[],"categories_sizes":[],"default_left":[0,0,0],"id":97,"left_children":[1,-1,-1],"loss_changes":[3.4211148E-2,0E0,0E0],"parents":[2147483647,0,0],"right_children":[2,-1,-1],"split_conditions":[-2.3572153E-1,2.7545506E-2,-2.350656E-2],"split_indices":[45,0,0],"split_type":[0,0,0],"sum_hessian":[2.7590184E0,1.1797663E0,1.579252E0],"tree_param":{"num_deleted":"0","num_feature":"50","num_nodes":"3","size_leaf_vector":"1"}},{"base_weights":[7.14329E-4,2.6915422E-2,-2.4769133E-2],"categories":[],"categories_nodes":[],"categories_segments":[],"categories_sizes":[],"default_left":[0,0,0],"id":98,"left_children":[1,-1,-1],"loss_changes":[3.520976E-2,0E0,0E0],"parents":[2147483647,0,0],"right_children":[2,-1,-1],"split_conditions":[-1.13050655E-1,2.6915422E-2,-2.4769133E-2],"split_indices":[10,0,0],"split_type":[0,0,0],"sum_hessian":[2.750953E0,1.2923834E0,1.4585696E0],"tree_param":{"num_deleted":"0","num_feature":"50","num_nodes":"3","size_leaf_vector":"1"}},{"base_weights":[1.0755119E-3,2.335615E-2,-2.7789604E-2],"categories":[],"categories_nodes":[],"categories_segments":[],"categories_sizes":[],"default_left":[0,0,0],"id":99,"left_children":[1,-1,-1],"loss_changes":[3.4133986E-2,0E0,0E0],"parents":[2147483647,0,0],"right_children":[2,-1,-1],"split_conditions":[2.4804452E-1,2.335615E-2,-2.7789604E-2],"split_indices":[1,0,0],"split_type":[0,0,0],"sum_hessian":[2.741949E0,1.6001031E0,1.1418458E0],"tree_param":{"num_deleted":"0","num_feature":"50","num_nodes":"3","size_leaf_vector":"1"}}]},"name":"gbtree"},"learner_model_param":{"base_score":"[4.5E-1]","boost_from_average":"1","num_class":"0","num_feature":"50","num_target":"1"},"objective":{"name":"binary:logistic","reg_loss_param":{"scale_pos_weight":"1"}}},"version":[3,1,1]}